{"learner":{"attributes":{},"feature_names":["age","bmi","children","age^2","bmi^2","sex_0","sex_1","region_0","region_1","region_2","region_3","smoker_0","smoker_1","age_group_0_25","age_group_26_35","age_group_36_45","age_group_46_55","age_group_56_65","bmi_category_normal","bmi_category_obese","bmi_category_overweight","bmi_category_underweight"],"feature_types":["float","float","float","float","float","float","float","float","float","float","float","float","float","float","float","float","float","float","float","float","float","float"],"gradient_booster":{"model":{"cats":{"enc":[],"feature_segments":[],"sorted_idx":[]},"gbtree_model_param":{"num_parallel_tree":"1","num_trees":"10"},"iteration_indptr":[0,1,2,3,4,5,6,7,8,9,10],"tree_info":[0,0,0,0,0,0,0,0,0,0],"trees":[{"base_weights":[1.899798E-2,1.2052053E0,-3.107952E-1,8.2687974E-1,1.5060191E-1,-8.8801736E-1,1.3201362E-1,6.5731823E-1,9.765225E-2,-1.2014344E0,-5.311516E-1,-1.7439602E-1,3.1882164E-1,6.666188E-2,1.7520046E-2,-1.5026045E0,-8.357858E-1,-6.2112963E-1,-3.0085525E-1,-2.8218406E-1,-2.4799803E-2,2.4465315E-1,5.0598997E-1,-1.6068168E-1,-1.1470168E0,-9.2384684E-1,-5.056136E-1,-7.4983114E-1,-4.9908954E-1,-7.228072E-2,-1.5379642E-1,-3.2108587E-1,-1.4297944E-1,-1.12825714E-1,6.069706E-2,1.4831288E-1,3.0862862E-1,4.2828552E-2,5.889511E-1,-1.3540602E-1,-7.8952235E-1,-7.490633E-1,-1.1052017E0,-6.003778E-2,-2.7919832E-1,-1.2276026E-1,-6.0865074E-1,-5.6243587E-1,-1.595633E-1,6.173522E-2,-2.4769422E-1,-4.0975094E-2,-2.8230345E-2,-1.7296168E-1,-9.792328E-3,-1.9696271E-2,4.5146076E-3,3.0404058E-1,-1.5340853E-2,1.9081463E-1,-1.9886255E-2,3.2273617E-2,2.0296693E-2,6.287083E-2,3.28035E-2,-5.0163727E-2,-1.0239693E-1,-8.33785E-2,-9.582842E-3,-1.271633E-1,-6.3822895E-2,-4.667766E-2,6.397215E-3,5.6046247E-2,-6.7042135E-2,1.3693047E-2,-5.870328E-2,3.6727287E-2,-2.8729318E-2,-3.5928447E-2,3.7218045E-2,-1.8264659E-2,-2.8371334E-3,-1.9831022E-3,1.0161877E-3,-1.0444917E-2,3.299011E-2,4.9448933E-2,8.519388E-3,-5.585313E-3,4.0380056E-3,2.4116421E-2,9.666151E-3,-6.4034327E-3,3.4934205E-3],"categories":[],"categories_nodes":[],"categories_segments":[],"categories_sizes":[],"default_left":[0,0,0,0,0,0,0,0,0,0,0,0,0,0,0,0,0,0,0,0,0,0,0,0,0,0,0,0,0,0,0,0,0,0,0,0,0,0,0,0,0,0,0,0,0,0,0,0,0,0,0,0,0,0,0,0,0,0,0,0,0,0,0,0,0,0,0,0,0,0,0,0,0,0,0,0,0,0,0,0,0,0,0,0,0,0,0,0,0,0,0,0,0,0,0],"id":0,"left_children":[1,3,5,7,-1,9,11,13,-1,15,17,19,21,-1,-1,23,25,27,29,31,33,35,37,-1,39,41,43,45,47,-1,49,51,53,55,57,59,61,-1,63,-1,65,67,69,-1,71,-1,73,75,77,-1,79,-1,-1,81,83,-1,85,87,89,91,93,-1,-1,-1,-1,-1,-1,-1,-1,-1,-1,-1,-1,-1,-1,-1,-1,-1,-1,-1,-1,-1,-1,-1,-1,-1,-1,-1,-1,-1,-1,-1,-1,-1,-1],"loss_changes":[2.5895984E2,1.51427E1,1.3251755E2,1.0327721E0,0E0,2.4527634E1,1.6884096E1,3.5663605E-2,0E0,1.1848709E1,2.030342E0,1.7989666E0,2.4166107E0,0E0,0E0,5.285797E-1,1.1611061E0,8.19479E-1,1.874491E0,3.0608654E-1,3.6809325E-1,7.7396107E-1,7.653046E-2,0E0,2.6324272E-1,5.35141E-1,1.3276052E-1,1.613636E0,8.135805E-1,0E0,1.9631432E0,5.62582E-2,6.219825E-2,2.3783305E-1,4.6724758E-1,3.9697623E-1,5.22542E-2,0E0,2.1974087E-2,0E0,9.37829E-2,1.3036785E0,6.6506577E-1,0E0,4.1608864E-1,0E0,2.4700336E0,6.8246365E-1,6.4385664E-1,0E0,1.7246736E0,0E0,0E0,1.3022572E-2,1.0027771E-3,0E0,4.2446658E-1,2.0794708E-1,4.740297E-2,1.8527377E-1,3.1279597E-2,0E0,0E0,0E0,0E0,0E0,0E0,0E0,0E0,0E0,0E0,0E0,0E0,0E0,0E0,0E0,0E0,0E0,0E0,0E0,0E0,0E0,0E0,0E0,0E0,0E0,0E0,0E0,0E0,0E0,0E0,0E0,0E0,0E0,0E0],"parents":[2147483647,0,0,1,1,2,2,3,3,5,5,6,6,7,7,9,9,10,10,11,11,12,12,15,15,16,16,17,17,18,18,19,19,20,20,21,21,22,22,24,24,25,25,26,26,27,27,28,28,30,30,31,31,32,32,33,33,34,34,35,35,36,36,38,38,40,40,41,41,42,42,44,44,46,46,47,47,48,48,50,50,53,53,54,54,56,56,57,57,58,58,59,59,60,60],"right_children":[2,4,6,8,-1,10,12,14,-1,16,18,20,22,-1,-1,24,26,28,30,32,34,36,38,-1,40,42,44,46,48,-1,50,52,54,56,58,60,62,-1,64,-1,66,68,70,-1,72,-1,74,76,78,-1,80,-1,-1,82,84,-1,86,88,90,92,94,-1,-1,-1,-1,-1,-1,-1,-1,-1,-1,-1,-1,-1,-1,-1,-1,-1,-1,-1,-1,-1,-1,-1,-1,-1,-1,-1,-1,-1,-1,-1,-1,-1,-1],"split_conditions":[1E0,1E0,-1.5714283E-1,1.2766193E-1,1.5060191E-1,-7.8767195E-2,6.2607026E-1,1E0,9.765225E-2,-1.1539595E0,1E0,2.700643E-1,1.4092834E0,6.666188E-2,1.7520046E-2,1E0,-4.419476E-1,7.5107926E-1,-1.1539595E0,1.5809257E0,7.5107926E-1,9.820762E-1,-7.8767195E-2,-1.6068168E-1,1E0,1E0,1E0,-1.3675631E0,1E0,-7.228072E-2,-9.4035596E-1,-7.8767195E-2,3.2406187E0,4.8366788E-1,3.412655E-1,1E0,1E0,4.2828552E-2,1E0,-1.3540602E-1,-1.4387642E0,1E0,-7.9795355E-1,-6.003778E-2,1E0,-1.2276026E-1,-1.2963619E0,-1.4387642E0,-1.3675631E0,6.173522E-2,2.4107723E0,-4.0975094E-2,-2.8230345E-2,1.2766193E-1,5.6460734E-2,-1.9696271E-2,1E0,1.5809257E0,1.5809257E0,1E0,-7.8767195E-2,3.2273617E-2,2.0296693E-2,6.287083E-2,3.28035E-2,-5.0163727E-2,-1.0239693E-1,-8.33785E-2,-9.582842E-3,-1.271633E-1,-6.3822895E-2,-4.667766E-2,6.397215E-3,5.6046247E-2,-6.7042135E-2,1.3693047E-2,-5.870328E-2,3.6727287E-2,-2.8729318E-2,-3.5928447E-2,3.7218045E-2,-1.8264659E-2,-2.8371334E-3,-1.9831022E-3,1.0161877E-3,-1.0444917E-2,3.299011E-2,4.9448933E-2,8.519388E-3,-5.585313E-3,4.0380056E-3,2.4116421E-2,9.666151E-3,-6.4034327E-3,3.4934205E-3],"split_indices":[11,19,0,0,0,2,0,21,0,0,9,0,0,0,0,9,0,2,0,2,2,0,2,0,19,5,18,0,20,0,0,2,2,0,0,10,18,0,20,0,0,7,0,0,5,0,0,0,0,0,2,0,0,0,0,0,20,2,2,7,2,0,0,0,0,0,0,0,0,0,0,0,0,0,0,0,0,0,0,0,0,0,0,0,0,0,0,0,0,0,0,0,0,0,0],"split_type":[0,0,0,0,0,0,0,0,0,0,0,0,0,0,0,0,0,0,0,0,0,0,0,0,0,0,0,0,0,0,0,0,0,0,0,0,0,0,0,0,0,0,0,0,0,0,0,0,0,0,0,0,0,0,0,0,0,0,0,0,0,0,0,0,0,0,0,0,0,0,0,0,0,0,0,0,0,0,0,0,0,0,0,0,0,0,0,0,0,0,0,0,0,0,0],"sum_hessian":[6.6E2,1.43E2,5.17E2,6.5E1,7.8E1,2.24E2,2.93E2,3.3E1,3.2E1,1.18E2,1.06E2,1.11E2,1.82E2,3.2E1,1E0,6.3E1,5.5E1,7.5E1,3.1E1,6.4E1,4.7E1,1.32E2,5E1,4.6E1,1.7E1,4.2E1,1.3E1,3.4E1,4.1E1,7E0,2.4E1,4.9E1,1.5E1,2.3E1,2.4E1,5.4E1,7.8E1,2.9E1,2.1E1,9E0,8E0,2.4E1,1.8E1,8E0,5E0,6E0,2.8E1,3.4E1,7E0,2E0,2.2E1,1.2E1,3.7E1,1.2E1,3E0,1.3E1,1E1,5E0,1.9E1,4.3E1,1.1E1,6.7E1,1.1E1,1.7E1,4E0,5E0,3E0,2.1E1,3E0,1.2E1,6E0,3E0,2E0,1E0,2.7E1,1E0,3.3E1,1E0,6E0,1.9E1,3E0,1.1E1,1E0,2E0,1E0,8E0,2E0,2E0,3E0,1.1E1,8E0,2.7E1,1.6E1,6E0,5E0],"tree_param":{"num_deleted":"0","num_feature":"22","num_nodes":"95","size_leaf_vector":"1"}},{"base_weights":[1.6126495E-2,1.0607862E0,-2.79407E-1,7.598722E-1,1.3509978E-1,-8.3161104E-1,1.5085556E-1,6.2215245E-1,8.8768594E-2,-1.2783563E0,-5.620806E-1,-1.4658839E-1,2.7928647E-1,2.616981E-2,6.349083E-2,-1.383628E-1,-1.0126687E0,-6.1086065E-1,-4.1109627E-1,-2.2447063E-1,1.4230893E-2,1.9872016E-1,4.4486722E-1,-1.1606343E-1,-7.3099226E-1,-3.834327E-2,-6.21818E-1,-4.4500744E-1,-2.0077467E-2,-6.864304E-2,-2.4803019E-1,9.282503E-2,-1.4438048E-2,2.8000662E-1,1.639893E-1,2.9165322E-1,4.6154685E-2,-8.532362E-2,-1.04316115E-1,-5.5664897E-2,4.9913406E-2,-6.7372805E-1,-4.624194E-1,-2.0783806E-1,-4.8840668E-2,-2.7065625E-2,3.6582947E-2,-1.7663372E-1,3.9764117E-2,-1.1942756E-1,-2.661881E-1,-5.2939847E-2,2.438839E-1,1.17816925E-1,3.3951625E-1,8.625171E-2,2.4154954E-1,2.0888126E-2,4.7691442E-2,-3.856913E-2,5.5807352E-2,-5.7972223E-2,-7.391399E-2,4.2288017E-2,-5.108705E-2,-3.8957182E-2,4.4128228E-2,-2.7419282E-2,7.736238E-3,-2.05568E-2,-5.645275E-3,-2.7878245E-2,-1.4205933E-2,1.3468361E-3,-9.281145E-3,1.3819014E-3,5.855265E-2,5.005387E-3,1.7723767E-2,4.324655E-2,2.3012925E-2,-4.788113E-3,9.895634E-3,1.3890775E-2,2.5860518E-2],"categories":[],"categories_nodes":[],"categories_segments":[],"categories_sizes":[],"default_left":[0,0,0,0,0,0,0,0,0,0,0,0,0,0,0,0,0,0,0,0,0,0,0,0,0,0,0,0,0,0,0,0,0,0,0,0,0,0,0,0,0,0,0,0,0,0,0,0,0,0,0,0,0,0,0,0,0,0,0,0,0,0,0,0,0,0,0,0,0,0,0,0,0,0,0,0,0,0,0,0,0,0,0,0,0],"id":1,"left_children":[1,3,5,7,-1,9,11,13,-1,15,17,19,21,-1,-1,-1,23,25,27,29,31,33,35,-1,37,39,41,43,45,47,49,51,-1,53,55,57,-1,59,-1,-1,-1,61,63,65,-1,-1,-1,67,-1,69,71,73,75,77,79,81,83,-1,-1,-1,-1,-1,-1,-1,-1,-1,-1,-1,-1,-1,-1,-1,-1,-1,-1,-1,-1,-1,-1,-1,-1,-1,-1,-1,-1],"loss_changes":[1.9881102E2,1.1374084E1,1.19396996E2,7.1510315E-1,0E0,2.5771973E1,1.0851824E1,8.565903E-3,0E0,8.92334E-1,7.726135E-1,1.0803417E0,2.5529613E0,0E0,0E0,0E0,2.7690315E-1,6.223068E-1,4.8168087E-1,1.9590569E-1,3.749139E-1,3.35207E-1,2.8943062E-2,0E0,2.3296857E0,1.1135751E0,5.241623E-1,2.4845171E-1,4.8581445E-1,5.23426E-1,8.496785E-2,4.5329273E-1,0E0,3.364215E-1,5.640125E-1,3.839135E-2,0E0,1.1815226E0,0E0,0E0,0E0,2.6538849E-2,1.4170623E0,9.976808E-1,0E0,0E0,0E0,2.1944925E-1,0E0,3.1792536E-2,2.7618885E-2,3.0375835E-2,7.779082E-1,3.9446935E-2,1.851654E-1,8.994353E-2,4.8107624E-2,0E0,0E0,0E0,0E0,0E0,0E0,0E0,0E0,0E0,0E0,0E0,0E0,0E0,0E0,0E0,0E0,0E0,0E0,0E0,0E0,0E0,0E0,0E0,0E0,0E0,0E0,0E0,0E0],"parents":[2147483647,0,0,1,1,2,2,3,3,5,5,6,6,7,7,9,9,10,10,11,11,12,12,16,16,17,17,18,18,19,19,20,20,21,21,22,22,24,24,25,25,26,26,27,27,28,28,29,29,30,30,31,31,33,33,34,34,35,35,37,37,41,41,42,42,43,43,47,47,49,49,50,50,51,51,52,52,53,53,54,54,55,55,56,56],"right_children":[2,4,6,8,-1,10,12,14,-1,16,18,20,22,-1,-1,-1,24,26,28,30,32,34,36,-1,38,40,42,44,46,48,50,52,-1,54,56,58,-1,60,-1,-1,-1,62,64,66,-1,-1,-1,68,-1,70,72,74,76,78,80,82,84,-1,-1,-1,-1,-1,-1,-1,-1,-1,-1,-1,-1,-1,-1,-1,-1,-1,-1,-1,-1,-1,-1,-1,-1,-1,-1,-1,-1],"split_conditions":[1E0,-1.0554571E-1,-1.5714283E-1,5.6460734E-2,1.3509978E-1,-1.1539595E0,4.8366788E-1,-2.1003265E0,8.8768594E-2,-1.3675631E0,-4.419476E-1,2.700643E-1,1.3380822E0,2.616981E-2,6.349083E-2,-1.383628E-1,-2.7624575E-2,-1.9133159E0,1.3757759E0,-8.594164E-2,1E0,-4.6398288E-1,1.4092834E0,-1.1606343E-1,3.4639683E-1,-2.1003265E0,1E0,-1.2948682E0,-3.707464E-1,5.0296552E-2,-1.0405992E0,-3.2372487E-1,-1.4438048E-2,-1.1341046E0,9.820762E-1,1.39054E0,4.6154685E-2,2.0285793E-1,-1.04316115E-1,-5.5664897E-2,4.9913406E-2,1E0,-1.0827583E0,-1.3522837E0,-4.8840668E-2,-2.7065625E-2,3.6582947E-2,1E0,3.9764117E-2,-1.4457891E0,1E0,1E0,1E0,1.0532774E0,8.396738E-1,5.5486906E-1,-1.9084883E-1,2.0888126E-2,4.7691442E-2,-3.856913E-2,5.5807352E-2,-5.7972223E-2,-7.391399E-2,4.2288017E-2,-5.108705E-2,-3.8957182E-2,4.4128228E-2,-2.7419282E-2,7.736238E-3,-2.05568E-2,-5.645275E-3,-2.7878245E-2,-1.4205933E-2,1.3468361E-3,-9.281145E-3,1.3819014E-3,5.855265E-2,5.005387E-3,1.7723767E-2,4.324655E-2,2.3012925E-2,-4.788113E-3,9.895634E-3,1.3890775E-2,2.5860518E-2],"split_indices":[11,1,0,0,0,0,0,1,0,0,0,0,0,0,0,0,1,1,1,0,7,1,0,0,1,1,9,1,0,1,1,1,0,1,0,1,0,1,0,0,0,5,0,1,0,0,0,7,0,1,9,9,9,0,0,0,1,0,0,0,0,0,0,0,0,0,0,0,0,0,0,0,0,0,0,0,0,0,0,0,0,0,0,0,0],"split_type":[0,0,0,0,0,0,0,0,0,0,0,0,0,0,0,0,0,0,0,0,0,0,0,0,0,0,0,0,0,0,0,0,0,0,0,0,0,0,0,0,0,0,0,0,0,0,0,0,0,0,0,0,0,0,0,0,0,0,0,0,0,0,0,0,0,0,0,0,0,0,0,0,0,0,0,0,0,0,0,0,0,0,0,0,0],"sum_hessian":[6.42E2,1.41E2,5.01E2,7.1E1,7E1,2.19E2,2.82E2,3.7E1,3.4E1,8.1E1,1.38E2,8.5E1,1.97E2,2E0,3.5E1,5.5E1,2.6E1,1.02E2,3.6E1,5.7E1,2.8E1,1.34E2,6.3E1,1.5E1,1.1E1,2E0,1E2,3.3E1,3E0,8E0,4.9E1,1.9E1,9E0,3.8E1,9.6E1,8E0,5.5E1,4E0,7E0,1E0,1E0,7.3E1,2.7E1,6E0,2.7E1,2E0,1E0,7E0,1E0,7E0,4.2E1,1E1,9E0,1.1E1,2.7E1,4.9E1,4.7E1,7E0,1E0,3E0,1E0,3.4E1,3.9E1,1E0,2.6E1,5E0,1E0,5E0,2E0,2E0,5E0,3.7E1,5E0,4E0,6E0,6E0,3E0,6E0,5E0,1.3E1,1.4E1,4E0,4.5E1,8E0,3.9E1],"tree_param":{"num_deleted":"0","num_feature":"22","num_nodes":"85","size_leaf_vector":"1"}},{"base_weights":[-3.2721483E-3,9.620971E-1,-2.7501336E-1,6.809075E-1,1.215086E-1,-7.837901E-1,1.0402629E-1,5.5720694E-2,7.954961E-2,-1.0531787E0,-4.639658E-1,-1.2797688E-1,2.6894066E-1,-1.2454528E0,-7.974997E-1,-5.4086345E-1,-2.543971E-1,-1.8667081E-1,6.6799866E-3,1.04112156E-1,3.361912E-1,-1.3183458E-1,-9.145861E-1,4.7417738E-2,-8.310738E-1,-6.967257E-1,-3.1939223E-1,-9.971835E-2,-3.9211604E-1,-3.162804E-1,-1.2739547E-1,-7.197106E-2,3.6527333E-1,1.716269E-1,3.2593105E-2,2.7267686E-1,4.2395353E-1,-1.137944E-1,-5.769051E-1,-9.393202E-1,-6.6564804E-1,-8.8599986E-1,-4.6526107E-1,-1.20614134E-1,-4.1777056E-1,1.15345635E-1,-3.6198372E-1,-1.8353121E-1,-5.107802E-1,-3.4819198E-1,-5.3718805E-2,-1.9323455E-1,-2.749138E-2,-1.938083E-1,3.355837E-2,3.0081749E-2,6.091466E-2,9.092087E-2,3.1396928E-1,-3.6158245E-2,6.515805E-2,2.1432665E-1,3.8287827E-1,3.3271544E-2,5.626017E-1,5.2398156E-2,-8.090291E-2,-6.9593444E-2,-1.1200847E-1,-7.433439E-2,-4.173384E-2,-9.961185E-2,-5.6877743E-2,-1.46766845E-2,-6.140248E-2,-4.0997587E-2,2.3707693E-2,-4.770738E-2,-2.310107E-2,-4.7466137E-2,4.8945937E-2,-3.8624875E-2,-1.0819674E-2,-3.6977198E-2,4.669566E-2,-5.4080762E-2,-1.3528061E-2,-4.0779058E-2,-2.5957737E-2,3.77759E-2,-3.234644E-2,-2.295627E-2,1.5478134E-2,-1.1715194E-2,7.940356E-3,-2.3152001E-2,-1.1763491E-2,1.0213399E-2,-8.879389E-3,1.5451431E-2,-6.2900544E-3,-3.2171837E-4,2.7973318E-2,1.3573374E-2,6.251958E-2,-7.909799E-3,-1.505375E-4,3.6537603E-3,9.636641E-3,1.8752099E-3,2.2641115E-2,1.879975E-2,4.685688E-2,5.9248216E-2,2.1570524E-2],"categories":[],"categories_nodes":[],"categories_segments":[],"categories_sizes":[],"default_left":[0,0,0,0,0,0,0,0,0,0,0,0,0,0,0,0,0,0,0,0,0,0,0,0,0,0,0,0,0,0,0,0,0,0,0,0,0,0,0,0,0,0,0,0,0,0,0,0,0,0,0,0,0,0,0,0,0,0,0,0,0,0,0,0,0,0,0,0,0,0,0,0,0,0,0,0,0,0,0,0,0,0,0,0,0,0,0,0,0,0,0,0,0,0,0,0,0,0,0,0,0,0,0,0,0,0,0,0,0,0,0,0,0,0,0],"id":2,"left_children":[1,3,5,7,-1,9,11,-1,-1,13,15,17,19,21,23,25,27,29,31,33,35,-1,37,-1,39,41,43,45,47,49,51,53,55,57,59,61,63,-1,65,67,69,71,73,75,77,79,81,83,85,87,89,91,93,95,97,99,-1,101,103,105,107,109,111,-1,113,-1,-1,-1,-1,-1,-1,-1,-1,-1,-1,-1,-1,-1,-1,-1,-1,-1,-1,-1,-1,-1,-1,-1,-1,-1,-1,-1,-1,-1,-1,-1,-1,-1,-1,-1,-1,-1,-1,-1,-1,-1,-1,-1,-1,-1,-1,-1,-1,-1,-1],"loss_changes":[1.7077948E2,9.345352E0,9.804758E1,5.489731E-1,0E0,1.8207443E1,1.120653E1,0E0,0E0,4.7585297E0,1.4900532E0,9.65479E-1,1.8605003E0,3.619156E-1,2.6569328E0,2.2973595E0,5.786625E-1,6.1273265E-1,1.0980313E0,2.406643E-1,5.5887127E-1,0E0,4.7487068E-1,0E0,3.0589294E-1,1.4278088E0,5.753856E-1,8.878107E-1,2.7752924E-1,1.9914293E-1,3.8934332E-1,4.1794115E-1,5.5388564E-1,2.7013868E-1,6.0566984E-2,3.8734913E-1,4.3266392E-1,0E0,2.468254E0,4.963646E-1,1.527977E-1,2.0193863E-1,9.0487003E-1,1.3392211E0,1.2237549E-1,2.218895E0,1.3161898E-3,1.0206988E0,2.8316736E-2,1.5616894E-2,5.8774847E-1,4.9067187E-1,2.4890879E-1,1.5854597E-2,1.6009575E-1,5.5999134E-2,0E0,3.2083958E-1,4.1438448E-1,1.3272796E-2,1.2556545E-2,1.1392546E-1,3.126967E-1,0E0,5.877638E-2,0E0,0E0,0E0,0E0,0E0,0E0,0E0,0E0,0E0,0E0,0E0,0E0,0E0,0E0,0E0,0E0,0E0,0E0,0E0,0E0,0E0,0E0,0E0,0E0,0E0,0E0,0E0,0E0,0E0,0E0,0E0,0E0,0E0,0E0,0E0,0E0,0E0,0E0,0E0,0E0,0E0,0E0,0E0,0E0,0E0,0E0,0E0,0E0,0E0,0E0],"parents":[2147483647,0,0,1,1,2,2,3,3,5,5,6,6,9,9,10,10,11,11,12,12,13,13,14,14,15,15,16,16,17,17,18,18,19,19,20,20,22,22,24,24,25,25,26,26,27,27,28,28,29,29,30,30,31,31,32,32,33,33,34,34,35,35,36,36,38,38,39,39,40,40,41,41,42,42,43,43,44,44,45,45,46,46,47,47,48,48,49,49,50,50,51,51,52,52,53,53,54,54,55,55,57,57,58,58,59,59,60,60,61,61,62,62,64,64],"right_children":[2,4,6,8,-1,10,12,-1,-1,14,16,18,20,22,24,26,28,30,32,34,36,-1,38,-1,40,42,44,46,48,50,52,54,56,58,60,62,64,-1,66,68,70,72,74,76,78,80,82,84,86,88,90,92,94,96,98,100,-1,102,104,106,108,110,112,-1,114,-1,-1,-1,-1,-1,-1,-1,-1,-1,-1,-1,-1,-1,-1,-1,-1,-1,-1,-1,-1,-1,-1,-1,-1,-1,-1,-1,-1,-1,-1,-1,-1,-1,-1,-1,-1,-1,-1,-1,-1,-1,-1,-1,-1,-1,-1,-1,-1,-1,-1],"split_conditions":[1E0,-1.0554571E-1,-2.9954523E-1,-1.4740456E-2,1.215086E-1,-7.8767195E-2,5.5486906E-1,5.5720694E-2,7.954961E-2,-1.1539595E0,1E0,1E0,9.10875E-1,1E0,-1.9133159E0,-7.2675234E-1,1E0,-1.4740456E-2,5.1782334E-1,6.9727147E-1,1.4092834E0,-1.3183458E-1,-2.925564E-1,4.7417738E-2,-7.9795355E-1,7.5107926E-1,-5.8435E-1,-7.2675234E-1,-9.4035596E-1,6.892498E-1,7.5107926E-1,1.2766193E-1,7.5107926E-1,2.8405994E-1,-7.8767195E-2,7.5107926E-1,-7.8767195E-2,-1.137944E-1,-8.5860364E-2,1E0,1E0,7.6060915E-1,-1.2251607E0,1E0,1.5809257E0,-1.1539595E0,-3.707464E-1,-1.2251607E0,2.4107723E0,7.5107926E-1,9.07429E-1,4.8366788E-1,1E0,1E0,-1.4163549E-1,9.6976584E-1,6.091466E-2,1E0,1E0,8.396738E-1,7.5107926E-1,9.820762E-1,1.8481302E-1,3.3271544E-2,1E0,5.2398156E-2,-8.090291E-2,-6.9593444E-2,-1.1200847E-1,-7.433439E-2,-4.173384E-2,-9.961185E-2,-5.6877743E-2,-1.46766845E-2,-6.140248E-2,-4.0997587E-2,2.3707693E-2,-4.770738E-2,-2.310107E-2,-4.7466137E-2,4.8945937E-2,-3.8624875E-2,-1.0819674E-2,-3.6977198E-2,4.669566E-2,-5.4080762E-2,-1.3528061E-2,-4.0779058E-2,-2.5957737E-2,3.77759E-2,-3.234644E-2,-2.295627E-2,1.5478134E-2,-1.1715194E-2,7.940356E-3,-2.3152001E-2,-1.1763491E-2,1.0213399E-2,-8.879389E-3,1.5451431E-2,-6.2900544E-3,-3.2171837E-4,2.7973318E-2,1.3573374E-2,6.251958E-2,-7.909799E-3,-1.505375E-4,3.6537603E-3,9.636641E-3,1.8752099E-3,2.2641115E-2,1.879975E-2,4.685688E-2,5.9248216E-2,2.1570524E-2],"split_indices":[11,1,0,0,0,2,0,0,0,0,9,9,0,9,1,0,5,0,1,0,0,0,1,0,0,2,0,0,0,1,2,0,2,1,2,2,2,0,1,5,8,1,0,5,2,0,0,0,2,2,1,0,10,18,1,1,0,7,9,0,2,0,1,0,7,0,0,0,0,0,0,0,0,0,0,0,0,0,0,0,0,0,0,0,0,0,0,0,0,0,0,0,0,0,0,0,0,0,0,0,0,0,0,0,0,0,0,0,0,0,0,0,0,0,0],"split_type":[0,0,0,0,0,0,0,0,0,0,0,0,0,0,0,0,0,0,0,0,0,0,0,0,0,0,0,0,0,0,0,0,0,0,0,0,0,0,0,0,0,0,0,0,0,0,0,0,0,0,0,0,0,0,0,0,0,0,0,0,0,0,0,0,0,0,0,0,0,0,0,0,0,0,0,0,0,0,0,0,0,0,0,0,0,0,0,0,0,0,0,0,0,0,0,0,0,0,0,0,0,0,0,0,0,0,0,0,0,0,0,0,0,0,0],"sum_hessian":[6.49E2,1.42E2,5.07E2,6.9E1,7.3E1,2.16E2,2.91E2,3.6E1,3.3E1,1.16E2,1E2,1.21E2,1.7E2,6.4E1,5.2E1,7.2E1,2.8E1,8.4E1,3.7E1,5E1,1.2E2,5E1,1.4E1,1E0,5.1E1,4.1E1,3.1E1,1.4E1,1.4E1,2.5E1,5.9E1,3.1E1,6E0,2.5E1,2.5E1,7.2E1,4.8E1,7E0,7E0,2.8E1,2.3E1,2.1E1,2E1,1.1E1,2E1,8E0,6E0,6E0,8E0,2.2E1,3E0,3.5E1,2.4E1,1.4E1,1.7E1,3E0,3E0,1.7E1,8E0,8E0,1.7E1,4.9E1,2.3E1,3.1E1,1.7E1,1E0,6E0,1.4E1,1.4E1,1.6E1,7E0,1.4E1,7E0,7E0,1.3E1,6E0,5E0,1.4E1,6E0,3E0,5E0,5E0,1E0,5E0,1E0,7E0,1E0,1.1E1,1.1E1,1E0,2E0,3.2E1,3E0,1.3E1,1.1E1,8E0,6E0,1.1E1,6E0,1E0,2E0,1.2E1,5E0,6E0,2E0,3E0,5E0,1E1,7E0,3E0,4.6E1,8E0,1.5E1,1.5E1,2E0],"tree_param":{"num_deleted":"0","num_feature":"22","num_nodes":"115","size_leaf_vector":"1"}},{"base_weights":[-6.499326E-3,8.819399E-1,-2.3619749E-1,6.115696E-1,1.1068956E-1,-7.668033E-1,5.3916536E-2,5.1995754E-2,7.2546564E-2,-1.0297402E0,-5.4958636E-1,-1.77106E-1,2.2572966E-1,-1.1009014E0,-8.5064167E-1,-6.347344E-1,-3.3816773E-1,-3.0654293E-1,-1.2364449E-1,9.0124E-2,3.0903792E-1,-1.15778625E-1,-7.62937E-2,-9.6328996E-2,-4.486096E-1,-2.3830414E-1,-6.6667885E-1,-1.5179116E-1,-4.9368877E-2,-3.4320322E-1,1.2753057E-1,-1.6512717E-1,-2.8132988E-2,1.3323644E-1,5.3939197E-2,2.4226525E-1,3.8476032E-1,3.0004537E-1,-9.578117E-2,-6.429659E-1,5.1556684E-2,-7.525174E-2,-4.4281736E-1,2.6375985E-1,-2.6797676E-1,-3.768475E-2,-1.8918377E-1,-2.4584293E-2,3.3393607E-2,-1.8247263E-1,-8.5893184E-2,-8.115596E-2,1.477083E-1,2.2724885E-1,7.1627446E-2,1.3387218E-2,1.7069158E-1,2.9105645E-1,1.863486E-1,3.1534275E-1,4.4043642E-1,7.6702975E-2,-5.5045392E-2,1.5749503E-2,-8.824549E-2,4.291897E-2,-5.0787725E-2,5.472479E-2,-2.9335214E-2,-4.470564E-2,4.7797427E-2,1.5676849E-2,-3.1042276E-2,-2.3013223E-2,-1.2148766E-2,-1.4583461E-2,3.444808E-4,-1.2607328E-2,3.3190727E-4,4.185934E-2,-1.2352307E-3,2.9607774E-3,3.4707356E-2,2.9530262E-3,2.0885183E-2,9.931389E-3,-5.5037567E-4,5.209763E-2,-2.5787235E-3,1.7017433E-2,3.1088213E-2,9.785959E-3,2.3646755E-2,2.0399485E-2,3.6586966E-2,5.5054445E-2,3.234464E-2],"categories":[],"categories_nodes":[],"categories_segments":[],"categories_sizes":[],"default_left":[0,0,0,0,0,0,0,0,0,0,0,0,0,0,0,0,0,0,0,0,0,0,0,0,0,0,0,0,0,0,0,0,0,0,0,0,0,0,0,0,0,0,0,0,0,0,0,0,0,0,0,0,0,0,0,0,0,0,0,0,0,0,0,0,0,0,0,0,0,0,0,0,0,0,0,0,0,0,0,0,0,0,0,0,0,0,0,0,0,0,0,0,0,0,0,0,0],"id":3,"left_children":[1,3,5,7,-1,9,11,-1,-1,13,15,17,19,21,23,25,27,29,31,33,35,-1,-1,-1,37,39,41,43,-1,45,47,49,51,53,55,57,59,61,-1,63,-1,-1,65,67,69,-1,71,-1,-1,73,75,77,79,81,83,85,87,89,91,93,95,-1,-1,-1,-1,-1,-1,-1,-1,-1,-1,-1,-1,-1,-1,-1,-1,-1,-1,-1,-1,-1,-1,-1,-1,-1,-1,-1,-1,-1,-1,-1,-1,-1,-1,-1,-1],"loss_changes":[1.3510048E2,7.5947495E0,8.101179E1,2.9058075E-1,0E0,1.0057343E1,1.3575191E1,0E0,0E0,1.2134552E-1,1.657547E0,9.724026E-1,2.1863728E0,1.9329071E-1,8.3592796E-1,7.6558113E-1,8.525977E-1,7.121258E-1,4.1137218E-1,1.1137444E-1,5.1858425E-1,0E0,0E0,0E0,3.33712E0,2.466931E0,9.542408E-1,8.431783E-1,0E0,1.3079977E-1,3.903612E-1,8.465445E-2,3.196671E-1,1.8065113E-1,2.0130014E-1,1.2855434E-1,7.368183E-2,2.0108943E0,0E0,1.0974901E0,0E0,0E0,1.4093614E0,7.922747E-1,1.9502819E0,0E0,4.2615068E-1,0E0,0E0,1.4352632E-1,8.082807E-2,9.907262E-2,3.5203484E-1,2.975936E-1,1.2092125E-1,5.4113477E-2,7.7049327E-1,2.8579235E-2,1.2764859E-1,8.289456E-2,1.8261147E-1,0E0,0E0,0E0,0E0,0E0,0E0,0E0,0E0,0E0,0E0,0E0,0E0,0E0,0E0,0E0,0E0,0E0,0E0,0E0,0E0,0E0,0E0,0E0,0E0,0E0,0E0,0E0,0E0,0E0,0E0,0E0,0E0,0E0,0E0,0E0,0E0],"parents":[2147483647,0,0,1,1,2,2,3,3,5,5,6,6,9,9,10,10,11,11,12,12,13,13,14,14,15,15,16,16,17,17,18,18,19,19,20,20,24,24,25,25,26,26,27,27,29,29,30,30,31,31,32,32,33,33,34,34,35,35,36,36,37,37,39,39,42,42,43,43,44,44,46,46,49,49,50,50,51,51,52,52,53,53,54,54,55,55,56,56,57,57,58,58,59,59,60,60],"right_children":[2,4,6,8,-1,10,12,-1,-1,14,16,18,20,22,24,26,28,30,32,34,36,-1,-1,-1,38,40,42,44,-1,46,48,50,52,54,56,58,60,62,-1,64,-1,-1,66,68,70,-1,72,-1,-1,74,76,78,80,82,84,86,88,90,92,94,96,-1,-1,-1,-1,-1,-1,-1,-1,-1,-1,-1,-1,-1,-1,-1,-1,-1,-1,-1,-1,-1,-1,-1,-1,-1,-1,-1,-1,-1,-1,-1,-1,-1,-1,-1,-1],"split_conditions":[1E0,-1.0554571E-1,-4.419476E-1,1.2766193E-1,1.1068956E-1,-1.1539595E0,4.8366788E-1,5.1995754E-2,7.2546564E-2,-1.3675631E0,1E0,-1.5714283E-1,9.820762E-1,1E0,2.8488016E-1,-1.0827583E0,-7.9795355E-1,1.3757759E0,2.700643E-1,1E0,1.4092834E0,-1.15778625E-1,-7.62937E-2,-9.6328996E-2,7.9833937E-1,1E0,-6.555512E-1,-9.1592544E-1,-4.9368877E-2,1E0,1E0,1E0,7.622496E-1,-4.467582E-1,9.2465365E-1,1E0,1.3067834E-1,1E0,-9.578117E-2,1E0,5.1556684E-2,-7.525174E-2,-5.8435E-1,-9.4035596E-1,-8.6915475E-1,-3.768475E-2,-3.707464E-1,-2.4584293E-2,3.3393607E-2,-1.5803994E-1,1.2766193E-1,4.1246668E-1,3.412655E-1,-1.1341046E0,1E0,5.5486906E-1,1.0148782E0,-6.4525205E-1,-1.2195015E-1,1.5516857E0,1E0,7.6702975E-2,-5.5045392E-2,1.5749503E-2,-8.824549E-2,4.291897E-2,-5.0787725E-2,5.472479E-2,-2.9335214E-2,-4.470564E-2,4.7797427E-2,1.5676849E-2,-3.1042276E-2,-2.3013223E-2,-1.2148766E-2,-1.4583461E-2,3.444808E-4,-1.2607328E-2,3.3190727E-4,4.185934E-2,-1.2352307E-3,2.9607774E-3,3.4707356E-2,2.9530262E-3,2.0885183E-2,9.931389E-3,-5.5037567E-4,5.209763E-2,-2.5787235E-3,1.7017433E-2,3.1088213E-2,9.785959E-3,2.3646755E-2,2.0399485E-2,3.6586966E-2,5.5054445E-2,3.234464E-2],"split_indices":[11,1,0,0,0,0,0,0,0,0,9,0,0,9,1,0,0,1,0,5,0,0,0,0,1,18,0,1,0,18,5,9,1,1,1,5,1,7,0,5,0,0,0,0,0,0,0,0,0,1,0,0,0,1,9,0,1,1,1,0,5,0,0,0,0,0,0,0,0,0,0,0,0,0,0,0,0,0,0,0,0,0,0,0,0,0,0,0,0,0,0,0,0,0,0,0,0],"split_type":[0,0,0,0,0,0,0,0,0,0,0,0,0,0,0,0,0,0,0,0,0,0,0,0,0,0,0,0,0,0,0,0,0,0,0,0,0,0,0,0,0,0,0,0,0,0,0,0,0,0,0,0,0,0,0,0,0,0,0,0,0,0,0,0,0,0,0,0,0,0,0,0,0,0,0,0,0,0,0,0,0,0,0,0,0,0,0,0,0,0,0,0,0,0,0,0,0],"sum_hessian":[6.6E2,1.35E2,5.25E2,6.3E1,7.2E1,1.85E2,3.4E2,3.8E1,2.5E1,8.2E1,1.03E2,1.45E2,1.95E2,5.5E1,2.7E1,7.2E1,3.1E1,4.1E1,1.04E2,7.5E1,1.2E2,4.5E1,1E1,2E1,7E0,6E0,6.6E1,1.5E1,1.6E1,3.8E1,3E0,7.2E1,3.2E1,3.3E1,4.2E1,6.6E1,5.4E1,3E0,4E0,4E0,2E0,4.6E1,2E1,3E0,1.2E1,3E1,8E0,1E0,2E0,5.8E1,1.4E1,2.5E1,7E0,1.2E1,2.1E1,3.2E1,1E1,3.3E1,3.3E1,2.7E1,2.7E1,2E0,1E0,1E0,3E0,1E0,1.9E1,2E0,1E0,1E1,2E0,2E0,6E0,3.1E1,2.7E1,8E0,6E0,1.6E1,9E0,2E0,5E0,5E0,7E0,1.7E1,4E0,5E0,2.7E1,3E0,7E0,6E0,2.7E1,1.3E1,2E1,1E1,1.7E1,1.2E1,1.5E1],"tree_param":{"num_deleted":"0","num_feature":"22","num_nodes":"97","size_leaf_vector":"1"}},{"base_weights":[1.6210051E-2,7.8588426E-1,-1.9187997E-1,5.486272E-1,9.9969655E-2,-6.037757E-1,5.6334928E-2,3.3611196E-1,5.868008E-1,-8.6289823E-1,-3.1102157E-1,-1.7697108E-1,1.4961651E-1,9.433604E-3,3.483986E-2,3.344021E-2,6.0430255E-2,-1.1030376E-1,-5.7668424E-1,-4.1891629E-1,-2.24936E-1,-2.5923485E-1,-7.980612E-2,8.6563066E-2,2.4295364E-1,-6.6719794E-1,-2.6774547E-1,-5.1049966E-1,-1.227345E-1,-3.1820315E-1,2.2290349E-2,-2.9805848E-2,-1.8415532E-1,-1.16937816E-1,3.300283E-1,3.370878E-2,1.5706049E-1,2.0852636E-1,2.9601395E-1,-8.477022E-2,-4.4207785E-1,1.9878888E-1,-5.8417805E-2,-8.698488E-2,-3.8946187E-1,3.0839062E-1,-4.131475E-2,-4.1033494E-1,-3.8007043E-2,6.549838E-2,-1.14879E-1,-1.9234965E-2,-7.3604262E-3,-1.4919011E-1,3.8783193E-2,5.587991E-2,-1.7814208E-2,-1.3180225E-1,6.0825773E-2,7.014513E-2,2.8813228E-1,9.9236235E-2,2.519679E-2,3.32159E-1,1.9905599E-2,-2.5304997E-2,-6.2399216E-2,-5.021074E-2,4.393896E-2,-4.790596E-2,-1.7694823E-2,5.7680633E-2,-3.8263608E-2,-1.0847461E-2,-4.974892E-2,-2.0242978E-2,1.327502E-2,2.5601706E-3,-3.0645356E-2,-1.9266129E-2,-9.18288E-3,-8.932415E-3,2.8207017E-2,-1.3683328E-2,-3.823042E-3,1.0367449E-2,-2.38768E-3,1.843035E-2,1.0368054E-3,3.527131E-2,1.1488152E-2,4.855328E-3,1.0951481E-2,3.8632493E-2,1.9895745E-2],"categories":[],"categories_nodes":[],"categories_segments":[],"categories_sizes":[],"default_left":[0,0,0,0,0,0,0,0,0,0,0,0,0,0,0,0,0,0,0,0,0,0,0,0,0,0,0,0,0,0,0,0,0,0,0,0,0,0,0,0,0,0,0,0,0,0,0,0,0,0,0,0,0,0,0,0,0,0,0,0,0,0,0,0,0,0,0,0,0,0,0,0,0,0,0,0,0,0,0,0,0,0,0,0,0,0,0,0,0,0,0,0,0,0,0],"id":4,"left_children":[1,3,5,7,-1,9,11,13,15,17,19,21,23,-1,-1,-1,-1,-1,25,27,29,31,33,35,37,39,41,43,45,47,49,-1,51,53,55,57,59,61,63,-1,65,67,-1,-1,69,71,-1,73,75,-1,77,-1,-1,79,81,-1,-1,83,85,87,89,91,-1,93,-1,-1,-1,-1,-1,-1,-1,-1,-1,-1,-1,-1,-1,-1,-1,-1,-1,-1,-1,-1,-1,-1,-1,-1,-1,-1,-1,-1,-1,-1,-1],"loss_changes":[1.0761917E2,6.7057114E0,5.411826E1,3.706417E-1,0E0,1.4827599E1,7.2300825E0,5.7514906E-3,5.4130554E-2,6.580673E0,7.881479E-1,7.386613E-1,1.3737679E0,0E0,0E0,0E0,0E0,0E0,1.2195206E0,1.0494814E0,1.2752886E0,9.3768835E-2,7.2339606E-1,5.2753663E-1,1.11812115E-1,1.169384E0,2.0352747E0,1.0095663E0,1.5046585E0,1.0170026E0,1.4638224E0,0E0,3.960073E-3,2.1672523E-1,5.645639E-1,3.8053432E-1,6.7471015E-1,2.646072E-1,5.6540728E-2,0E0,4.9544954E-1,1.2324376E0,0E0,0E0,3.9124942E-1,1.148119E0,0E0,7.3528767E-1,3.3571267E-1,0E0,3.8462108E-1,0E0,0E0,6.958282E-2,2.745305E-1,0E0,0E0,4.1797757E-4,2.6379198E-1,2.574032E-1,2.2800791E-1,4.5807064E-3,0E0,9.62975E-2,0E0,0E0,0E0,0E0,0E0,0E0,0E0,0E0,0E0,0E0,0E0,0E0,0E0,0E0,0E0,0E0,0E0,0E0,0E0,0E0,0E0,0E0,0E0,0E0,0E0,0E0,0E0,0E0,0E0,0E0,0E0],"parents":[2147483647,0,0,1,1,2,2,3,3,5,5,6,6,7,7,8,8,9,9,10,10,11,11,12,12,18,18,19,19,20,20,21,21,22,22,23,23,24,24,25,25,26,26,27,27,28,28,29,29,30,30,32,32,33,33,34,34,35,35,36,36,37,37,38,38,40,40,41,41,44,44,45,45,47,47,48,48,50,50,53,53,54,54,57,57,58,58,59,59,60,60,61,61,63,63],"right_children":[2,4,6,8,-1,10,12,14,16,18,20,22,24,-1,-1,-1,-1,-1,26,28,30,32,34,36,38,40,42,44,46,48,50,-1,52,54,56,58,60,62,64,-1,66,68,-1,-1,70,72,-1,74,76,-1,78,-1,-1,80,82,-1,-1,84,86,88,90,92,-1,94,-1,-1,-1,-1,-1,-1,-1,-1,-1,-1,-1,-1,-1,-1,-1,-1,-1,-1,-1,-1,-1,-1,-1,-1,-1,-1,-1,-1,-1,-1,-1],"split_conditions":[1E0,-1.0554571E-1,-2.9954523E-1,-1.404778E0,9.9969655E-2,-7.8767195E-2,2.700643E-1,-1.3675631E0,-1.3675631E0,-1.1539595E0,7.5107926E-1,7.5107926E-1,1.1244786E0,9.433604E-3,3.483986E-2,3.344021E-2,6.0430255E-2,-1.1030376E-1,1E0,1E0,1E0,1.2766193E-1,1.0870577E0,7.5107926E-1,-7.8767195E-2,1E0,1E0,-1.3675631E0,-7.2675234E-1,2.4107723E0,-1.2251607E0,-2.9805848E-2,9.0660876E-1,1E0,1.5020902E0,4.1246668E-1,7.684726E-1,1.3380822E0,1E0,-8.477022E-2,1E0,-2.1003265E0,-5.8417805E-2,-8.698488E-2,7.6060915E-1,2.8488016E-1,-4.131475E-2,-9.1592544E-1,1E0,6.549838E-2,1.5809257E0,-1.9234965E-2,-7.3604262E-3,-1.4740456E-2,3.9971128E-1,5.587991E-2,-1.7814208E-2,6.6218245E-1,4.4892463E-1,4.1246668E-1,1E0,1.1956798E0,2.519679E-2,1E0,1.9905599E-2,-2.5304997E-2,-6.2399216E-2,-5.021074E-2,4.393896E-2,-4.790596E-2,-1.7694823E-2,5.7680633E-2,-3.8263608E-2,-1.0847461E-2,-4.974892E-2,-2.0242978E-2,1.327502E-2,2.5601706E-3,-3.0645356E-2,-1.9266129E-2,-9.18288E-3,-8.932415E-3,2.8207017E-2,-1.3683328E-2,-3.823042E-3,1.0367449E-2,-2.38768E-3,1.843035E-2,1.0368054E-3,3.527131E-2,1.1488152E-2,4.855328E-3,1.0951481E-2,3.8632493E-2,1.9895745E-2],"split_indices":[11,1,0,1,0,2,0,0,0,0,2,2,0,0,0,0,0,0,8,9,8,0,1,2,2,6,6,0,0,2,0,0,1,10,1,0,0,0,10,0,9,1,0,0,1,1,0,1,9,0,2,0,0,0,1,0,0,1,1,0,7,0,0,9,0,0,0,0,0,0,0,0,0,0,0,0,0,0,0,0,0,0,0,0,0,0,0,0,0,0,0,0,0,0,0],"split_type":[0,0,0,0,0,0,0,0,0,0,0,0,0,0,0,0,0,0,0,0,0,0,0,0,0,0,0,0,0,0,0,0,0,0,0,0,0,0,0,0,0,0,0,0,0,0,0,0,0,0,0,0,0,0,0,0,0,0,0,0,0,0,0,0,0,0,0,0,0,0,0,0,0,0,0,0,0,0,0,0,0,0,0,0,0,0,0,0,0,0,0,0,0,0,0],"sum_hessian":[6.7E2,1.42E2,5.28E2,6.9E1,7.3E1,1.98E2,3.3E2,1.2E1,5.7E1,1.04E2,9.4E1,9.4E1,2.36E2,1E0,1.1E1,5E0,5.2E1,5.5E1,4.9E1,4E1,5.4E1,5E1,4.4E1,1.42E2,9.4E1,3.7E1,1.2E1,3E1,1E1,3.9E1,1.5E1,3.1E1,1.9E1,4.1E1,3E0,8.2E1,6E1,6E1,3.4E1,1.9E1,1.8E1,5E0,7E0,6E0,2.4E1,4E0,6E0,2.9E1,1E1,2E0,1.3E1,1.7E1,2E0,3.4E1,7E0,2E0,1E0,1.1E1,7.1E1,3.7E1,2.3E1,1.8E1,4.2E1,2.3E1,1.1E1,1E1,8E0,1E0,4E0,1.6E1,8E0,3E0,1E0,7E0,2.2E1,5E0,5E0,8E0,5E0,1.8E1,1.6E1,5E0,2E0,1E1,1E0,4.7E1,2.4E1,1.2E1,2.5E1,1.6E1,7E0,4E0,1.4E1,1.5E1,8E0],"tree_param":{"num_deleted":"0","num_feature":"22","num_nodes":"95","size_leaf_vector":"1"}},{"base_weights":[-5.5450955E-3,-1.8258113E-1,7.0001733E-1,-6.047012E-1,5.9162658E-2,4.555937E-1,9.075603E-2,-8.4189945E-1,-3.95364E-1,-1.2577632E-1,2.141159E-1,3.3560254E-2,5.3959794E-2,-9.145903E-1,-5.8722275E-1,-4.5685744E-1,-2.4548881E-1,-1.7388992E-1,-5.8958633E-3,1.6917777E-1,3.1363833E-1,-7.5364214E-1,-1.0190724E0,-7.142837E-2,-4.71838E-1,-5.316096E-1,-3.1506425E-1,-5.2705955E-2,-1.4940977E-1,-2.3482296E-1,-1.3397549E-1,-5.389742E-2,1.346E-1,2.3510072E-1,1.4072831E-1,1.7575046E-2,3.2641435E-1,-8.007839E-2,-4.2375383E-1,-1.0950663E-1,-6.891833E-2,-5.75308E-2,-6.7323856E-2,-5.932652E-1,-3.439026E-1,-3.7628832E-1,1.4635229E-1,6.325867E-2,-2.7891308E-1,-2.617012E-1,2.179184E-2,-5.201729E-2,-1.4837418E-1,-1.0131214E-1,5.8763072E-2,-3.8036942E-2,3.8389912E-1,8.267442E-2,2.941383E-1,5.515366E-2,1.9055812E-1,3.43356E-1,2.0920245E-2,-6.68036E-2,4.320701E-3,5.5647213E-2,-5.036503E-2,-4.297043E-2,-7.147801E-2,-3.4466267E-3,-4.25161E-2,-4.8653457E-2,-2.3709686E-2,4.65696E-2,-4.0583946E-2,-5.209632E-2,-8.609778E-3,-1.2929082E-2,-2.8662562E-2,-2.6262537E-2,2.989451E-2,-1.2580949E-2,3.7984848E-2,-2.430785E-2,-1.1632561E-2,-1.1958268E-2,-3.724752E-3,3.0687762E-2,3.263855E-4,-1.0742406E-2,2.2383643E-2,-5.623786E-3,6.9606975E-2,-4.6221735E-3,9.859423E-3,3.6988806E-2,1.8410875E-2,7.8807276E-4,1.3818418E-2,1.2354541E-2,2.2706447E-2,3.0914027E-2,5.0282985E-2],"categories":[],"categories_nodes":[],"categories_segments":[],"categories_sizes":[],"default_left":[0,0,0,0,0,0,0,0,0,0,0,0,0,0,0,0,0,0,0,0,0,0,0,0,0,0,0,0,0,0,0,0,0,0,0,0,0,0,0,0,0,0,0,0,0,0,0,0,0,0,0,0,0,0,0,0,0,0,0,0,0,0,0,0,0,0,0,0,0,0,0,0,0,0,0,0,0,0,0,0,0,0,0,0,0,0,0,0,0,0,0,0,0,0,0,0,0,0,0,0,0,0,0],"id":5,"left_children":[1,3,5,7,9,11,-1,13,15,17,19,-1,-1,21,23,25,27,29,31,33,35,37,39,-1,41,43,45,-1,47,49,51,53,55,57,59,-1,61,-1,63,-1,-1,65,-1,67,69,71,73,-1,75,77,79,81,83,85,87,89,91,93,95,97,99,101,-1,-1,-1,-1,-1,-1,-1,-1,-1,-1,-1,-1,-1,-1,-1,-1,-1,-1,-1,-1,-1,-1,-1,-1,-1,-1,-1,-1,-1,-1,-1,-1,-1,-1,-1,-1,-1,-1,-1,-1,-1],"loss_changes":[8.406731E1,5.4935932E1,6.4348526E0,9.399414E0,9.856245E0,4.64015E-1,0E0,1.147583E0,8.647785E-1,9.045322E-1,7.832689E-1,0E0,0E0,3.9230728E-1,1.7404556E-4,6.168604E-1,8.140024E-1,2.4093533E-1,3.1747955E-1,2.1260142E-1,4.304695E-2,1.4276123E-1,2.2301102E-1,0E0,1.2128932E0,3.3991337E-1,8.460648E-1,0E0,2.8094864E0,3.0228925E-1,7.488847E-2,1.929152E-1,5.310612E-1,3.1763983E-1,3.9032173E-1,0E0,2.9442787E-2,0E0,7.132851E-1,0E0,0E0,1.9237796E0,0E0,3.6860943E-1,3.373667E-1,2.6827765E-1,8.9435375E-1,0E0,1.0285783E0,9.165192E-2,4.726464E-1,4.302085E-1,1.5079701E-1,2.4808228E-2,1.5047018E-1,1.694105E-1,7.261347E-1,2.9181235E-2,1.569376E-1,1.4021447E-1,1.1628437E-1,7.9185486E-2,0E0,0E0,0E0,0E0,0E0,0E0,0E0,0E0,0E0,0E0,0E0,0E0,0E0,0E0,0E0,0E0,0E0,0E0,0E0,0E0,0E0,0E0,0E0,0E0,0E0,0E0,0E0,0E0,0E0,0E0,0E0,0E0,0E0,0E0,0E0,0E0,0E0,0E0,0E0,0E0,0E0],"parents":[2147483647,0,0,1,1,2,2,3,3,4,4,5,5,7,7,8,8,9,9,10,10,13,13,14,14,15,15,16,16,17,17,18,18,19,19,20,20,21,21,22,22,24,24,25,25,26,26,28,28,29,29,30,30,31,31,32,32,33,33,34,34,36,36,38,38,41,41,43,43,44,44,45,45,46,46,48,48,49,49,50,50,51,51,52,52,53,53,54,54,55,55,56,56,57,57,58,58,59,59,60,60,61,61],"right_children":[2,4,6,8,10,12,-1,14,16,18,20,-1,-1,22,24,26,28,30,32,34,36,38,40,-1,42,44,46,-1,48,50,52,54,56,58,60,-1,62,-1,64,-1,-1,66,-1,68,70,72,74,-1,76,78,80,82,84,86,88,90,92,94,96,98,100,102,-1,-1,-1,-1,-1,-1,-1,-1,-1,-1,-1,-1,-1,-1,-1,-1,-1,-1,-1,-1,-1,-1,-1,-1,-1,-1,-1,-1,-1,-1,-1,-1,-1,-1,-1,-1,-1,-1,-1,-1,-1],"split_conditions":[1E0,-4.419476E-1,-1.0554571E-1,-1.1539595E0,5.5486906E-1,-3.707464E-1,9.075603E-2,1E0,1E0,2.700643E-1,1.4092834E0,3.3560254E-2,5.3959794E-2,1E0,-4.467582E-1,1E0,-1.1144192E0,-1.5714283E-1,1E0,-4.6398288E-1,-1.0241948E0,1E0,-1.2963619E0,-7.142837E-2,-8.5860364E-2,-6.555512E-1,1E0,-5.2705955E-2,-9.1592544E-1,1.3757759E0,-8.594164E-2,1E0,-5.025333E-1,-1.1324642E0,9.10875E-1,1.7575046E-2,1.1231475E0,-8.007839E-2,1E0,-1.0950663E-1,-6.891833E-2,-1.4387642E0,-6.7323856E-2,1E0,-5.8435E-1,-7.9795355E-1,-1.0827583E0,6.325867E-2,-1.9084883E-1,-1.2948682E0,1E0,5.801602E-1,-1.4740456E-2,1E0,3.412655E-1,1E0,1E0,6.2607026E-1,1E0,8.606763E-1,9.704923E-2,9.0660876E-1,2.0920245E-2,-6.68036E-2,4.320701E-3,5.5647213E-2,-5.036503E-2,-4.297043E-2,-7.147801E-2,-3.4466267E-3,-4.25161E-2,-4.8653457E-2,-2.3709686E-2,4.65696E-2,-4.0583946E-2,-5.209632E-2,-8.609778E-3,-1.2929082E-2,-2.8662562E-2,-2.6262537E-2,2.989451E-2,-1.2580949E-2,3.7984848E-2,-2.430785E-2,-1.1632561E-2,-1.1958268E-2,-3.724752E-3,3.0687762E-2,3.263855E-4,-1.0742406E-2,2.2383643E-2,-5.623786E-3,6.9606975E-2,-4.6221735E-3,9.859423E-3,3.6988806E-2,1.8410875E-2,7.8807276E-4,1.3818418E-2,1.2354541E-2,2.2706447E-2,3.0914027E-2,5.0282985E-2],"split_indices":[12,0,1,0,0,0,0,9,9,0,0,0,0,5,1,8,1,0,20,1,1,20,0,0,1,0,18,0,1,1,0,10,1,1,0,0,1,0,8,0,0,0,0,5,0,0,0,0,1,1,5,1,0,9,0,10,5,0,5,1,1,1,0,0,0,0,0,0,0,0,0,0,0,0,0,0,0,0,0,0,0,0,0,0,0,0,0,0,0,0,0,0,0,0,0,0,0,0,0,0,0,0,0],"split_type":[0,0,0,0,0,0,0,0,0,0,0,0,0,0,0,0,0,0,0,0,0,0,0,0,0,0,0,0,0,0,0,0,0,0,0,0,0,0,0,0,0,0,0,0,0,0,0,0,0,0,0,0,0,0,0,0,0,0,0,0,0,0,0,0,0,0,0,0,0,0,0,0,0,0,0,0,0,0,0,0,0,0,0,0,0,0,0,0,0,0,0,0,0,0,0,0,0,0,0,0,0,0,0],"sum_hessian":[6.71E2,5.37E2,1.34E2,1.95E2,3.42E2,6.3E1,7.1E1,9E1,1.05E2,1.56E2,1.86E2,2.8E1,3.5E1,6.8E1,2.2E1,7.3E1,3.2E1,1.11E2,4.5E1,1.3E2,5.6E1,3E1,3.8E1,8E0,1.4E1,4.6E1,2.7E1,7E0,2.5E1,4.2E1,6.9E1,3.4E1,1.1E1,3.7E1,9.3E1,6E0,5E1,2.5E1,5E0,2.9E1,9E0,5E0,9E0,3.3E1,1.3E1,2.4E1,3E0,3E0,2.2E1,3.8E1,4E0,1.1E1,5.8E1,2.4E1,1E1,7E0,4E0,1.1E1,2.6E1,3.5E1,5.8E1,4.2E1,8E0,3E0,2E0,2E0,3E0,1.6E1,1.7E1,3E0,1E1,1.2E1,1.2E1,2E0,1E0,9E0,1.3E1,7E0,3.1E1,2E0,2E0,1E1,1E0,1.3E1,4.5E1,1.8E1,6E0,1E0,9E0,6E0,1E0,2E0,2E0,1E0,1E1,1.4E1,1.2E1,2.3E1,1.2E1,2.2E1,3.6E1,3.7E1,5E0],"tree_param":{"num_deleted":"0","num_feature":"22","num_nodes":"103","size_leaf_vector":"1"}},{"base_weights":[-1.1276947E-2,6.254886E-1,-1.6775914E-1,4.4608328E-1,7.954168E-2,-5.115001E-1,6.2641904E-2,3.895752E-1,5.751283E-2,-6.9597715E-1,-3.0593774E-1,-9.17308E-2,1.6874813E-1,2.5835246E-1,4.1264154E-2,-8.867463E-1,-4.8214835E-1,-4.11952E-1,-2.588247E-1,-1.381519E-1,-2.9493829E-3,9.423916E-2,2.1868575E-1,7.283926E-3,2.708718E-2,-7.3989965E-2,-9.907772E-1,3.79436E-2,-5.0513023E-1,-4.999985E-1,-2.1441723E-1,-3.1396702E-1,-1.0470518E-1,-2.0892562E-1,-6.251945E-2,-1.1314663E-1,3.9271608E-2,1.0574349E-1,-1.9641638E-2,1.5955228E-1,2.8261885E-1,-1.0807418E-1,-6.5078145E-1,-2.8974783E-1,-5.474956E-1,-6.3566774E-1,-1.5723173E-1,5.0644685E-2,-3.3714834E-1,-3.804965E-1,-1.5976933E-1,4.6738498E-2,-1.895244E-1,-2.4451831E-1,-1.2381185E-1,-9.8488376E-2,3.127997E-1,-1.7718298E-2,-5.0976038E-2,2.6492533E-1,-8.769562E-3,9.252899E-2,3.7442908E-1,2.8155963E-3,-4.026683E-2,5.5728808E-2,1.9839932E-1,2.409026E-1,3.722399E-1,-8.2584985E-2,-2.536154E-3,-4.562458E-2,6.876159E-2,-4.318417E-2,-6.646883E-2,-4.975112E-3,-7.2917454E-2,-3.3290673E-2,4.484091E-2,-4.5873124E-2,-4.009116E-3,-4.320658E-2,-1.3954974E-2,-2.1580447E-2,1.9234117E-2,-2.9875755E-3,-3.635923E-2,-2.6174335E-2,-1.5052986E-2,-1.736963E-2,1.3362472E-2,-1.575743E-2,-3.1523753E-3,5.2113533E-2,-1.56103615E-2,-5.6157797E-3,-7.3518755E-4,5.1172893E-2,1.359129E-3,2.194689E-2,-6.546378E-3,1.3714868E-2,4.256319E-3,5.18157E-2,4.3486594E-3,-5.5366326E-3,1.7615318E-3,-1.3571739E-3,7.04937E-3,2.0169964E-2,2.8243065E-3,2.959924E-2,1.4321148E-2,5.0095983E-2,1.5356568E-2],"categories":[],"categories_nodes":[],"categories_segments":[],"categories_sizes":[],"default_left":[0,0,0,0,0,0,0,0,0,0,0,0,0,0,0,0,0,0,0,0,0,0,0,0,0,0,0,0,0,0,0,0,0,0,0,0,0,0,0,0,0,0,0,0,0,0,0,0,0,0,0,0,0,0,0,0,0,0,0,0,0,0,0,0,0,0,0,0,0,0,0,0,0,0,0,0,0,0,0,0,0,0,0,0,0,0,0,0,0,0,0,0,0,0,0,0,0,0,0,0,0,0,0,0,0,0,0,0,0,0,0,0,0,0,0],"id":6,"left_children":[1,3,5,7,-1,9,11,13,-1,15,17,19,21,23,-1,25,27,29,31,33,35,37,39,-1,-1,-1,41,-1,43,45,47,49,51,53,55,57,59,61,63,65,67,-1,69,71,73,75,77,-1,79,81,83,-1,85,87,89,91,93,-1,95,97,99,101,103,-1,105,107,109,111,113,-1,-1,-1,-1,-1,-1,-1,-1,-1,-1,-1,-1,-1,-1,-1,-1,-1,-1,-1,-1,-1,-1,-1,-1,-1,-1,-1,-1,-1,-1,-1,-1,-1,-1,-1,-1,-1,-1,-1,-1,-1,-1,-1,-1,-1,-1],"loss_changes":[6.6167885E1,3.6388474E0,4.2244728E1,2.5722218E-1,0E0,7.9022865E0,5.257049E0,4.1707993E-2,0E0,4.1411476E0,4.0782642E-1,5.39487E-1,6.863427E-1,3.4949183E-3,0E0,1.5296936E-1,1.2807102E0,4.145589E-1,5.96015E-1,4.4727802E-1,2.1846476E-1,1.04266465E-1,3.8211393E-1,0E0,0E0,0E0,2.448883E-1,0E0,3.3409977E-1,8.30111E-1,1.1439445E0,4.931779E-1,1.1075901E0,1.0302055E-1,6.1129975E-1,4.272324E-2,3.70906E-1,2.1744311E-1,9.020429E-3,2.3497081E-1,1.0847521E-1,0E0,9.644766E-1,2.1037416E0,3.0932617E-1,7.307434E-1,8.9404994E-1,0E0,3.4277976E-1,3.9944744E-1,3.9665812E-1,0E0,5.1714164E-1,9.168386E-3,2.1584134E-1,1.532993E-1,4.721082E-1,0E0,1.3955347E-3,3.6522585E-1,3.8962153E-1,1.4799517E-1,1.20164126E-1,0E0,6.219242E-3,1.9374587E-2,1.9012451E-2,1.6750002E-1,3.4528565E-1,0E0,0E0,0E0,0E0,0E0,0E0,0E0,0E0,0E0,0E0,0E0,0E0,0E0,0E0,0E0,0E0,0E0,0E0,0E0,0E0,0E0,0E0,0E0,0E0,0E0,0E0,0E0,0E0,0E0,0E0,0E0,0E0,0E0,0E0,0E0,0E0,0E0,0E0,0E0,0E0,0E0,0E0,0E0,0E0,0E0,0E0],"parents":[2147483647,0,0,1,1,2,2,3,3,5,5,6,6,7,7,9,9,10,10,11,11,12,12,13,13,15,15,16,16,17,17,18,18,19,19,20,20,21,21,22,22,26,26,28,28,29,29,30,30,31,31,32,32,33,33,34,34,35,35,36,36,37,37,38,38,39,39,40,40,42,42,43,43,44,44,45,45,46,46,48,48,49,49,50,50,52,52,53,53,54,54,55,55,56,56,58,58,59,59,60,60,61,61,62,62,64,64,65,65,66,66,67,67,68,68],"right_children":[2,4,6,8,-1,10,12,14,-1,16,18,20,22,24,-1,26,28,30,32,34,36,38,40,-1,-1,-1,42,-1,44,46,48,50,52,54,56,58,60,62,64,66,68,-1,70,72,74,76,78,-1,80,82,84,-1,86,88,90,92,94,-1,96,98,100,102,104,-1,106,108,110,112,114,-1,-1,-1,-1,-1,-1,-1,-1,-1,-1,-1,-1,-1,-1,-1,-1,-1,-1,-1,-1,-1,-1,-1,-1,-1,-1,-1,-1,-1,-1,-1,-1,-1,-1,-1,-1,-1,-1,-1,-1,-1,-1,-1,-1,-1,-1],"split_conditions":[1E0,-9.242214E-2,-2.9954523E-1,5.5486906E-1,7.954168E-2,-7.8767195E-2,5.5486906E-1,-1.404778E0,5.751283E-2,-1.1539595E0,-1.0827583E0,2.700643E-1,1.0532774E0,-1.3675631E0,4.1264154E-2,1E0,-1.9133159E0,2.8488016E-1,1E0,7.5107926E-1,-8.535885E-1,1.0009344E0,-7.8767195E-2,7.283926E-3,2.708718E-2,-7.3989965E-2,1E0,3.79436E-2,-1.2079246E0,1.5809257E0,3.4639683E-1,1E0,-9.4035596E-1,1.2766193E-1,1.0870577E0,-7.8767195E-2,-7.8767195E-2,9.853501E-1,1E0,1.3380822E0,6.1132866E-1,-1.0807418E-1,1.8481302E-1,-1.2243291E0,1E0,-1.4457891E0,1E0,5.0644685E-2,1E0,-4.419476E-1,4.3744153E-1,4.6738498E-2,1E0,8.606763E-1,1E0,-1.4740456E-2,1.5020902E0,-1.7718298E-2,4.8366788E-1,2.0285793E-1,3.412655E-1,1E0,6.9727147E-1,2.8155963E-3,1E0,1.1244786E0,2.223886E0,2.061388E-1,1.1592373E0,-8.2584985E-2,-2.536154E-3,-4.562458E-2,6.876159E-2,-4.318417E-2,-6.646883E-2,-4.975112E-3,-7.2917454E-2,-3.3290673E-2,4.484091E-2,-4.5873124E-2,-4.009116E-3,-4.320658E-2,-1.3954974E-2,-2.1580447E-2,1.9234117E-2,-2.9875755E-3,-3.635923E-2,-2.6174335E-2,-1.5052986E-2,-1.736963E-2,1.3362472E-2,-1.575743E-2,-3.1523753E-3,5.2113533E-2,-1.56103615E-2,-5.6157797E-3,-7.3518755E-4,5.1172893E-2,1.359129E-3,2.194689E-2,-6.546378E-3,1.3714868E-2,4.256319E-3,5.18157E-2,4.3486594E-3,-5.5366326E-3,1.7615318E-3,-1.3571739E-3,7.04937E-3,2.0169964E-2,2.8243065E-3,2.959924E-2,1.4321148E-2,5.0095983E-2,1.5356568E-2],"split_indices":[11,1,0,0,0,2,0,1,0,0,0,0,0,0,0,5,1,1,9,2,1,1,2,0,0,0,9,0,1,2,1,8,0,0,1,2,2,1,5,0,1,0,1,1,5,1,8,0,5,0,1,0,5,1,9,0,1,0,0,1,0,5,0,0,7,0,1,1,1,0,0,0,0,0,0,0,0,0,0,0,0,0,0,0,0,0,0,0,0,0,0,0,0,0,0,0,0,0,0,0,0,0,0,0,0,0,0,0,0,0,0,0,0,0,0],"split_type":[0,0,0,0,0,0,0,0,0,0,0,0,0,0,0,0,0,0,0,0,0,0,0,0,0,0,0,0,0,0,0,0,0,0,0,0,0,0,0,0,0,0,0,0,0,0,0,0,0,0,0,0,0,0,0,0,0,0,0,0,0,0,0,0,0,0,0,0,0,0,0,0,0,0,0,0,0,0,0,0,0,0,0,0,0,0,0,0,0,0,0,0,0,0,0,0,0,0,0,0,0,0,0,0,0,0,0,0,0,0,0,0,0,0,0],"sum_hessian":[6.62E2,1.3E2,5.32E2,6.5E1,6.5E1,2.13E2,3.19E2,4.8E1,1.7E1,1.11E2,1.02E2,1.3E2,1.89E2,9E0,3.9E1,5.7E1,5.4E1,2.9E1,7.3E1,8.5E1,4.5E1,7.7E1,1.12E2,1E0,8E0,2.7E1,3E1,1E0,5.3E1,1.9E1,1E1,5.3E1,2E1,4.3E1,4.2E1,1.2E1,3.3E1,7E1,7E0,6E1,5.2E1,2.2E1,8E0,1E1,4.3E1,1.3E1,6E0,1E0,9E0,3.6E1,1.7E1,2E0,1.8E1,2.9E1,1.4E1,3.9E1,3E0,5E0,7E0,5E0,2.8E1,6.8E1,2E0,2E0,5E0,1.7E1,4.3E1,3.8E1,1.4E1,6E0,2E0,9E0,1E0,2.4E1,1.9E1,2E0,1.1E1,5E0,1E0,6E0,3E0,2.9E1,7E0,1.5E1,2E0,1E1,8E0,2.3E1,6E0,1.2E1,2E0,2E1,1.9E1,2E0,1E0,6E0,1E0,2E0,3E0,5E0,2.3E1,3.5E1,3.3E1,1E0,1E0,4E0,1E0,3E0,1.4E1,4.2E1,1E0,2.3E1,1.5E1,8E0,6E0],"tree_param":{"num_deleted":"0","num_feature":"22","num_nodes":"115","size_leaf_vector":"1"}},{"base_weights":[-1.1639041E-2,5.6021935E-1,-1.6857591E-1,3.9476517E-1,7.224438E-1,-4.8241088E-1,5.5262662E-2,2.4189334E-1,4.4407392E-1,5.736373E-2,7.9567336E-2,-7.749703E-1,-3.6825916E-1,-1.0044645E-1,1.6843335E-1,1.19212475E-2,2.7483946E-2,2.3883073E-2,4.60143E-2,-8.2217745E-2,-5.611339E-1,-4.303048E-1,-2.6254222E-1,-1.3919184E-1,-1.3890709E-2,1.2753366E-1,2.7569434E-1,-6.60801E-2,2.4579048E-2,-3.985021E-1,-6.456078E-1,-3.213587E-1,-9.1407835E-2,-1.8017201E-1,-3.296401E-2,-8.641198E-2,3.5979386E-2,1.397575E-1,2.4500402E-2,2.28648E-1,3.414022E-1,4.404998E-2,-4.036312E-2,-4.1547152E-1,2.2078831E-1,-7.276158E-2,-3.2018997E-2,-7.3884013E-3,-3.2530393E-2,4.7608044E-2,-1.5663087E-1,-2.463723E-2,-1.601571E-1,-9.581624E-2,3.366773E-1,-1.4257355E-1,-5.8164302E-2,2.5298882E-1,6.1094863E-3,1.2035414E-1,2.8423384E-1,-6.387949E-3,3.5376072E-2,1.2612167E-2,2.867635E-1,4.592083E-1,1.7257299E-1,-6.320074E-2,-3.8516004E-2,6.402898E-2,-3.091073E-2,-2.7978683E-2,-2.9755486E-3,-1.319614E-2,-1.9867215E-2,-1.3609566E-2,1.5693257E-3,4.8639297E-2,-5.6234836E-3,-2.9160976E-3,-1.6363645E-2,-6.7442656E-4,-1.170303E-2,-4.8651695E-4,3.843484E-2,-9.390037E-3,3.9106687E-3,1.4813523E-2,5.8800867E-3,4.4451892E-2,2.314806E-3,1.0000864E-4,4.1022063E-3,3.1226022E-2,1.1308575E-2,5.6994755E-2,1.5061259E-2,4.630804E-3,1.825676E-2],"categories":[],"categories_nodes":[],"categories_segments":[],"categories_sizes":[],"default_left":[0,0,0,0,0,0,0,0,0,0,0,0,0,0,0,0,0,0,0,0,0,0,0,0,0,0,0,0,0,0,0,0,0,0,0,0,0,0,0,0,0,0,0,0,0,0,0,0,0,0,0,0,0,0,0,0,0,0,0,0,0,0,0,0,0,0,0,0,0,0,0,0,0,0,0,0,0,0,0,0,0,0,0,0,0,0,0,0,0,0,0,0,0,0,0,0,0,0,0],"id":7,"left_children":[1,3,5,7,9,11,13,15,17,-1,-1,19,21,23,25,-1,-1,-1,-1,-1,27,29,31,33,35,37,39,-1,41,43,45,47,49,51,53,55,57,59,61,63,65,-1,-1,67,69,-1,-1,-1,-1,-1,71,-1,73,75,77,79,81,83,85,87,89,-1,91,-1,93,95,97,-1,-1,-1,-1,-1,-1,-1,-1,-1,-1,-1,-1,-1,-1,-1,-1,-1,-1,-1,-1,-1,-1,-1,-1,-1,-1,-1,-1,-1,-1,-1,-1],"loss_changes":[5.9595818E1,3.553028E0,3.662606E1,4.428501E-1,3.1726074E-1,6.9615784E0,5.3915396E0,4.8072815E-2,6.8198204E-2,0E0,0E0,1.4432526E-1,9.2339325E-1,4.3068552E-1,7.4132824E-1,0E0,0E0,0E0,0E0,0E0,8.335104E-1,4.137516E-1,5.846224E-1,3.814987E-1,1.513914E-1,1.6030598E-1,7.0322275E-2,0E0,7.12104E-1,1.0165224E0,6.0580254E-2,1.9900799E-2,7.037952E-1,4.534149E-2,6.363114E-1,1.8676683E-2,1.6050562E-1,2.9097748E-1,1.6677663E-2,1.4854228E-1,2.787571E-1,0E0,0E0,3.210392E-1,8.647942E-1,0E0,0E0,0E0,0E0,0E0,2.4168211E-1,0E0,3.0252814E-2,1.0544117E-1,2.6265264E-1,7.1721748E-3,3.856031E-2,1.03484675E-1,7.957317E-2,1.6913128E-1,5.337362E-1,0E0,2.6761852E-3,0E0,4.8823833E-2,2.5589514E-1,2.9034019E-3,0E0,0E0,0E0,0E0,0E0,0E0,0E0,0E0,0E0,0E0,0E0,0E0,0E0,0E0,0E0,0E0,0E0,0E0,0E0,0E0,0E0,0E0,0E0,0E0,0E0,0E0,0E0,0E0,0E0,0E0,0E0,0E0],"parents":[2147483647,0,0,1,1,2,2,3,3,4,4,5,5,6,6,7,7,8,8,11,11,12,12,13,13,14,14,20,20,21,21,22,22,23,23,24,24,25,25,26,26,28,28,29,29,30,30,31,31,32,32,33,33,34,34,35,35,36,36,37,37,38,38,39,39,40,40,43,43,44,44,50,50,52,52,53,53,54,54,55,55,56,56,57,57,58,58,59,59,60,60,62,62,64,64,65,65,66,66],"right_children":[2,4,6,8,10,12,14,16,18,-1,-1,20,22,24,26,-1,-1,-1,-1,-1,28,30,32,34,36,38,40,-1,42,44,46,48,50,52,54,56,58,60,62,64,66,-1,-1,68,70,-1,-1,-1,-1,-1,72,-1,74,76,78,80,82,84,86,88,90,-1,92,-1,94,96,98,-1,-1,-1,-1,-1,-1,-1,-1,-1,-1,-1,-1,-1,-1,-1,-1,-1,-1,-1,-1,-1,-1,-1,-1,-1,-1,-1,-1,-1,-1,-1,-1],"split_conditions":[1E0,-1.0554571E-1,1.225E3,-1.168554E0,1.156E3,4E2,2.209E3,6.25E2,4E2,5.736373E-2,7.9567336E-2,1E0,8.41E2,1.849E3,3.481E3,1.19212475E-2,2.7483946E-2,2.3883073E-2,4.60143E-2,-8.2217745E-2,1.3396862E0,7.9833937E-1,4.399022E-1,1E0,-5.1893777E-1,1.2191135E0,4.0873376E-1,-6.60801E-2,1.4003826E0,7.6060915E-1,1E0,-1.8353947E0,4.4892463E-1,1.369E3,5.801602E-1,-1.2226886E0,-4.9515134E-1,9.853501E-1,2.304E3,3.721E3,1.1231475E0,4.404998E-2,-4.036312E-2,4.41E2,4.41E2,-7.276158E-2,-3.2018997E-2,-7.3884013E-3,-3.2530393E-2,4.7608044E-2,1.0944396E0,-2.463723E-2,-1.3999504E-1,1.681E3,1.5020902E0,-1.6639682E0,-8.306223E-1,-5.025333E-1,-7.437725E-2,1.2821768E-1,1E0,-6.387949E-3,2.601E3,1.2612167E-2,1E0,3.969E3,1.2191135E0,-6.320074E-2,-3.8516004E-2,6.402898E-2,-3.091073E-2,-2.7978683E-2,-2.9755486E-3,-1.319614E-2,-1.9867215E-2,-1.3609566E-2,1.5693257E-3,4.8639297E-2,-5.6234836E-3,-2.9160976E-3,-1.6363645E-2,-6.7442656E-4,-1.170303E-2,-4.8651695E-4,3.843484E-2,-9.390037E-3,3.9106687E-3,1.4813523E-2,5.8800867E-3,4.4451892E-2,2.314806E-3,1.0000864E-4,4.1022063E-3,3.1226022E-2,1.1308575E-2,5.6994755E-2,1.5061259E-2,4.630804E-3,1.825676E-2],"split_indices":[11,1,3,1,3,3,3,3,3,0,0,9,3,3,3,0,0,0,0,0,1,1,1,9,1,1,1,0,1,1,7,1,1,3,1,1,1,1,3,3,1,0,0,3,3,0,0,0,0,0,1,0,1,3,1,1,1,1,1,1,7,0,3,0,7,3,1,0,0,0,0,0,0,0,0,0,0,0,0,0,0,0,0,0,0,0,0,0,0,0,0,0,0,0,0,0,0,0,0],"split_type":[0,0,0,0,0,0,0,0,0,0,0,0,0,0,0,0,0,0,0,0,0,0,0,0,0,0,0,0,0,0,0,0,0,0,0,0,0,0,0,0,0,0,0,0,0,0,0,0,0,0,0,0,0,0,0,0,0,0,0,0,0,0,0,0,0,0,0,0,0,0,0,0,0,0,0,0,0,0,0,0,0,0,0,0,0,0,0,0,0,0,0,0,0,0,0,0,0,0,0],"sum_hessian":[6.62E2,1.42E2,5.2E2,7.2E1,7E1,2.16E2,3.04E2,1.9E1,5.3E1,2.6E1,4.4E1,5.9E1,1.57E2,1.28E2,1.76E2,5E0,1.4E1,5E0,4.8E1,4.6E1,1.3E1,9.7E1,6E1,8.8E1,4E1,1.29E2,4.7E1,1.1E1,2E0,8.7E1,1E1,4.4E1,1.6E1,6.3E1,2.5E1,1.6E1,2.4E1,1.15E2,1.4E1,3E1,1.7E1,1E0,1E0,8.5E1,2E0,7E0,3E0,1E0,4.3E1,1E0,1.5E1,1.2E1,5.1E1,2.2E1,3E0,4E0,1.2E1,2E0,2.2E1,1.03E2,1.2E1,1E0,1.3E1,1.2E1,1.8E1,9E0,8E0,8E0,7.7E1,1E0,1E0,7E0,8E0,3.2E1,1.9E1,1.6E1,6E0,2E0,1E0,1E0,3E0,7E0,5E0,1E0,1E0,5E0,1.7E1,7E1,3.3E1,7E0,5E0,2E0,1.1E1,1.5E1,3E0,6E0,3E0,1E0,7E0],"tree_param":{"num_deleted":"0","num_feature":"22","num_nodes":"99","size_leaf_vector":"1"}},{"base_weights":[-2.3014626E-2,5.241284E-1,-1.5334135E-1,3.7740093E-1,6.498932E-1,-4.4152603E-1,7.3671155E-2,2.9626703E-1,4.9013793E-2,5.0711866E-2,7.040486E-2,-6.097366E-1,-2.5763816E-1,-7.170658E-2,1.5388745E-1,1.4748248E-2,3.0943338E-2,-6.791628E-1,-3.741909E-1,-2.9135248E-1,1.22126006E-1,-1.0916547E-1,-1.7670652E-2,9.092139E-2,1.9313774E-1,3.797221E-2,-6.9479984E-1,-4.2068824E-2,-1.9373715E-1,-4.1761714E-1,-2.0722626E-1,2.3475946E-1,-1.0551405E-1,-1.3817711E-1,-6.256514E-2,-8.435651E-2,2.99109E-2,4.60562E-2,1.5817948E-1,1.4741065E-1,2.4834114E-1,-5.785774E-2,-7.9376644E-1,-3.3736404E-2,3.423071E-2,-4.6411878E-1,-1.6778302E-1,-2.4432907E-1,-1.5274245E-1,-7.990774E-2,3.766079E-1,-1.2504704E-2,-2.3457527E-3,1.642189E-1,-1.5953854E-1,-1.0277826E-1,1.2688561E-1,-1.1148834E-1,2.0200824E-2,3.651309E-2,2.9743267E-3,1.3064879E-1,2.3206472E-3,2.3830047E-2,2.4642187E-1,1.2825073E-1,1.9244316E-1,9.453515E-2,2.6634768E-1,-8.169777E-2,-3.4000065E-2,5.5868626E-2,-3.2681655E-2,-4.9724925E-2,-2.652943E-2,4.6709776E-2,-3.2520853E-2,-2.767467E-2,1.849308E-3,-2.2110267E-2,-7.47776E-5,-1.1889554E-2,-9.660721E-5,-9.789705E-3,5.197084E-2,4.9154855E-2,-2.452202E-2,-2.1886848E-2,-1.0113115E-2,-1.1890526E-2,3.8994474E-3,2.8959213E-2,-7.8116097E-3,-1.6783452E-2,-6.0374E-3,2.48945E-2,-3.99325E-3,1.6749574E-2,-8.485317E-3,5.2079856E-3,-4.464806E-3,-2.4927936E-3,5.7419776E-3,3.4762975E-2,1.3069257E-2,1.08349295E-2,2.1918966E-2,2.6905566E-2,8.593559E-3,1.0334746E-2,2.0830631E-3,3.961864E-2,2.2858726E-2],"categories":[],"categories_nodes":[],"categories_segments":[],"categories_sizes":[],"default_left":[0,0,0,0,0,0,0,0,0,0,0,0,0,0,0,0,0,0,0,0,0,0,0,0,0,0,0,0,0,0,0,0,0,0,0,0,0,0,0,0,0,0,0,0,0,0,0,0,0,0,0,0,0,0,0,0,0,0,0,0,0,0,0,0,0,0,0,0,0,0,0,0,0,0,0,0,0,0,0,0,0,0,0,0,0,0,0,0,0,0,0,0,0,0,0,0,0,0,0,0,0,0,0,0,0,0,0,0,0,0,0,0,0],"id":8,"left_children":[1,3,5,7,9,11,13,15,-1,-1,-1,17,19,21,23,-1,-1,25,27,29,31,33,35,37,39,-1,41,-1,43,45,47,49,51,53,55,57,59,61,63,65,67,-1,69,-1,71,73,75,77,79,81,83,-1,-1,85,87,89,91,93,-1,-1,95,97,99,101,103,105,107,109,111,-1,-1,-1,-1,-1,-1,-1,-1,-1,-1,-1,-1,-1,-1,-1,-1,-1,-1,-1,-1,-1,-1,-1,-1,-1,-1,-1,-1,-1,-1,-1,-1,-1,-1,-1,-1,-1,-1,-1,-1,-1,-1,-1,-1],"loss_changes":[4.7071915E1,2.0982819E0,3.49022E1,4.1274357E-1,1.6100693E-1,7.1119003E0,3.4978719E0,2.8803825E-2,0E0,0E0,0E0,1.7409325E0,1.4951797E0,2.1465242E-1,4.5942736E-1,0E0,0E0,1.8037071E0,1.702156E-1,1.0287867E0,2.811693E-1,7.652789E-2,1.4530893E-1,2.220484E-1,2.6125813E-1,0E0,5.98938E-1,0E0,2.7348664E-1,3.9845467E-1,9.4078064E-2,3.4253922E-1,3.4779422E-3,2.7166426E-1,2.1111959E-1,1.70144E-1,2.4271528E-1,1.7358291E-1,3.4978712E-1,3.3127785E-2,1.1883569E-1,0E0,2.1725655E-1,0E0,9.400009E-1,9.204531E-2,9.514756E-1,3.2036042E-1,3.0115592E-1,9.118423E-3,3.9038736E-1,0E0,0E0,5.2260226E-1,1.0261661E-1,5.4936737E-2,1.8939735E-1,4.1708916E-2,0E0,0E0,2.8434035E-1,1.4126194E-1,7.7113286E-2,2.2722334E-2,1.6539633E-1,6.6741765E-2,1.2375516E-1,2.3937598E-3,1.3496375E-1,0E0,0E0,0E0,0E0,0E0,0E0,0E0,0E0,0E0,0E0,0E0,0E0,0E0,0E0,0E0,0E0,0E0,0E0,0E0,0E0,0E0,0E0,0E0,0E0,0E0,0E0,0E0,0E0,0E0,0E0,0E0,0E0,0E0,0E0,0E0,0E0,0E0,0E0,0E0,0E0,0E0,0E0,0E0,0E0],"parents":[2147483647,0,0,1,1,2,2,3,3,4,4,5,5,6,6,7,7,11,11,12,12,13,13,14,14,17,17,18,18,19,19,20,20,21,21,22,22,23,23,24,24,26,26,28,28,29,29,30,30,31,31,32,32,33,33,34,34,35,35,36,36,37,37,38,38,39,39,40,40,42,42,44,44,45,45,46,46,47,47,48,48,49,49,50,50,53,53,54,54,55,55,56,56,57,57,60,60,61,61,62,62,63,63,64,64,65,65,66,66,67,67,68,68],"right_children":[2,4,6,8,10,12,14,16,-1,-1,-1,18,20,22,24,-1,-1,26,28,30,32,34,36,38,40,-1,42,-1,44,46,48,50,52,54,56,58,60,62,64,66,68,-1,70,-1,72,74,76,78,80,82,84,-1,-1,86,88,90,92,94,-1,-1,96,98,100,102,104,106,108,110,112,-1,-1,-1,-1,-1,-1,-1,-1,-1,-1,-1,-1,-1,-1,-1,-1,-1,-1,-1,-1,-1,-1,-1,-1,-1,-1,-1,-1,-1,-1,-1,-1,-1,-1,-1,-1,-1,-1,-1,-1,-1,-1,-1,-1],"split_conditions":[1E0,-9.242214E-2,-1.5714283E-1,1.2766193E-1,-7.9795355E-1,-7.8767195E-2,5.5486906E-1,-1.4387642E0,4.9013793E-2,5.0711866E-2,7.040486E-2,-7.9795355E-1,2.4107723E0,2.700643E-1,1.0532774E0,1.4748248E-2,3.0943338E-2,-1.9133159E0,1E0,-8.6915475E-1,3.2406187E0,7.5107926E-1,-5.025333E-1,7.5107926E-1,-7.8767195E-2,3.797221E-2,1E0,-4.2068824E-2,5.0296552E-2,1.5809257E0,7.5107926E-1,-2.6138797E-1,1E0,-8.594164E-2,1E0,2.4107723E0,-4.9515134E-1,6.9727147E-1,7.684726E-1,1E0,-9.7826236E-1,-5.785774E-2,1.0944396E0,-3.3736404E-2,5.27666E-1,7.6060915E-1,-1.3675631E0,1.3396862E0,1E0,-9.4035596E-1,-1.4387642E0,-1.2504704E-2,-2.3457527E-3,-1.3999504E-1,1.2766193E-1,2.4107723E0,5.6460734E-2,-7.8767195E-2,2.0200824E-2,3.651309E-2,3.412655E-1,1E0,1E0,1.5809257E0,1.5809257E0,1.530798E0,-9.242214E-2,1E0,-6.042409E-1,-8.169777E-2,-3.4000065E-2,5.5868626E-2,-3.2681655E-2,-4.9724925E-2,-2.652943E-2,4.6709776E-2,-3.2520853E-2,-2.767467E-2,1.849308E-3,-2.2110267E-2,-7.47776E-5,-1.1889554E-2,-9.660721E-5,-9.789705E-3,5.197084E-2,4.9154855E-2,-2.452202E-2,-2.1886848E-2,-1.0113115E-2,-1.1890526E-2,3.8994474E-3,2.8959213E-2,-7.8116097E-3,-1.6783452E-2,-6.0374E-3,2.48945E-2,-3.99325E-3,1.6749574E-2,-8.485317E-3,5.2079856E-3,-4.464806E-3,-2.4927936E-3,5.7419776E-3,3.4762975E-2,1.3069257E-2,1.08349295E-2,2.1918966E-2,2.6905566E-2,8.593559E-3,1.0334746E-2,2.0830631E-3,3.961864E-2,2.2858726E-2],"split_indices":[11,1,0,0,0,2,0,0,0,0,0,0,2,0,0,0,0,1,8,0,2,2,1,2,2,0,5,0,1,2,2,1,10,0,10,2,1,0,0,8,1,0,1,0,1,1,0,1,8,0,0,0,0,1,0,2,0,2,0,0,0,10,5,2,2,1,1,10,1,0,0,0,0,0,0,0,0,0,0,0,0,0,0,0,0,0,0,0,0,0,0,0,0,0,0,0,0,0,0,0,0,0,0,0,0,0,0,0,0,0,0,0,0],"split_type":[0,0,0,0,0,0,0,0,0,0,0,0,0,0,0,0,0,0,0,0,0,0,0,0,0,0,0,0,0,0,0,0,0,0,0,0,0,0,0,0,0,0,0,0,0,0,0,0,0,0,0,0,0,0,0,0,0,0,0,0,0,0,0,0,0,0,0,0,0,0,0,0,0,0,0,0,0,0,0,0,0,0,0,0,0,0,0,0,0,0,0,0,0,0,0,0,0,0,0,0,0,0,0,0,0,0,0,0,0,0,0,0,0],"sum_hessian":[6.58E2,1.26E2,5.32E2,6E1,6.6E1,2.34E2,2.98E2,3.7E1,2.3E1,2.1E1,4.5E1,1.21E2,1.13E2,1.06E2,1.92E2,4E0,3.3E1,9.2E1,2.9E1,1.04E2,9E0,6.2E1,4.4E1,7.5E1,1.17E2,1E0,9.1E1,2.2E1,7E0,4E1,6.4E1,6E0,3E0,3.7E1,2.5E1,1.8E1,2.6E1,4.6E1,2.9E1,6.6E1,5.1E1,4.5E1,4.6E1,4E0,3E0,3.3E1,7E0,3.6E1,2.8E1,2E0,4E0,2E0,1E0,2E0,3.5E1,2.1E1,4E0,1.7E1,1E0,1E0,2.5E1,1.5E1,3.1E1,1.2E1,1.7E1,4.9E1,1.7E1,6E0,4.5E1,4.3E1,3E0,1E0,2E0,2.7E1,6E0,1E0,6E0,3.2E1,4E0,1.9E1,9E0,1E0,1E0,1E0,3E0,1E0,1E0,1.6E1,1.9E1,1.9E1,2E0,2E0,2E0,7E0,1E1,3E0,2.2E1,1.3E1,2E0,1.5E1,1.6E1,5E0,7E0,8E0,9E0,4.2E1,7E0,9E0,8E0,5E0,1E0,8E0,3.7E1],"tree_param":{"num_deleted":"0","num_feature":"22","num_nodes":"113","size_leaf_vector":"1"}},{"base_weights":[-7.25962E-3,4.6719858E-1,-1.2720329E-1,3.053156E-1,5.830689E-1,-4.047044E-1,5.0481692E-2,2.4036735E-1,3.8143266E-2,4.5693174E-2,6.252159E-2,-6.460144E-1,-3.041415E-1,-5.697909E-2,1.3051699E-1,1.3828265E-2,2.57304E-2,-7.893186E-2,-4.416309E-1,-3.5157728E-1,-2.3987919E-1,-9.760134E-2,6.6515625E-2,1.0972205E-1,2.2025551E-1,-3.591988E-1,-5.6658413E-2,-3.0984637E-1,-5.3511918E-2,-2.8545582E-1,-1.4225955E-1,-2.0123607E-2,-6.0946416E-2,-5.1271804E-2,2.2698364E-1,8.552944E-2,1.7592795E-1,2.5070646E-1,1.0781331E-2,-4.5809463E-1,9.32846E-3,-3.350372E-1,8.464184E-2,-3.260164E-2,-2.2550778E-1,4.5231342E-2,-1.8984531E-1,-1.03169784E-1,-2.5014877E-2,2.4109125E-2,-7.794452E-2,5.7452727E-2,1.6112144E-1,-7.5305304E-3,9.554099E-2,2.342044E-1,3.6876533E-2,3.0574825E-1,1.6101202E-2,-5.4410707E-2,-2.8206512E-2,5.953045E-2,-2.8599167E-2,-3.841153E-2,-2.5917498E-2,3.5631817E-2,-2.1524843E-2,7.602533E-4,-2.9882992E-2,-2.6884375E-2,-8.640653E-3,-8.759117E-4,-1.3431559E-2,5.458069E-3,-3.9018933E-3,-2.6856423E-3,-1.0338761E-2,4.440133E-2,7.6971687E-3,-7.3647737E-3,9.976312E-3,6.733216E-3,1.219125E-2,3.7268374E-2,1.6017847E-2,-6.9102447E-4,2.8115893E-2,3.3441734E-2,7.959939E-3],"categories":[],"categories_nodes":[],"categories_segments":[],"categories_sizes":[],"default_left":[0,0,0,0,0,0,0,0,0,0,0,0,0,0,0,0,0,0,0,0,0,0,0,0,0,0,0,0,0,0,0,0,0,0,0,0,0,0,0,0,0,0,0,0,0,0,0,0,0,0,0,0,0,0,0,0,0,0,0,0,0,0,0,0,0,0,0,0,0,0,0,0,0,0,0,0,0,0,0,0,0,0,0,0,0,0,0,0,0],"id":9,"left_children":[1,3,5,7,9,11,13,15,-1,-1,-1,17,19,21,23,-1,-1,-1,25,27,29,31,33,35,37,39,-1,41,-1,43,45,-1,47,49,51,53,55,57,-1,59,61,63,65,-1,67,-1,69,71,73,-1,75,-1,77,79,81,83,85,87,-1,-1,-1,-1,-1,-1,-1,-1,-1,-1,-1,-1,-1,-1,-1,-1,-1,-1,-1,-1,-1,-1,-1,-1,-1,-1,-1,-1,-1,-1,-1],"loss_changes":[3.77896E1,2.335474E0,2.6153553E1,1.9504929E-1,1.236763E-1,4.8267517E0,2.7940495E0,2.3204207E-2,0E0,0E0,0E0,1.4087543E0,3.6681652E-1,7.038039E-1,3.229289E-1,0E0,0E0,0E0,7.458782E-2,4.6992302E-1,2.5303674E-1,3.866012E-1,6.731768E-1,2.3001206E-1,8.938551E-2,6.967435E-1,0E0,7.2398233E-1,0E0,3.346777E-2,7.3661315E-1,0E0,1.17274106E-1,1.8255219E-1,2.507813E-1,1.06930435E-1,3.1550014E-1,7.9131484E-2,0E0,7.3637486E-2,1.0355047E0,1.4617586E-1,4.840623E-1,0E0,3.612069E-1,0E0,1.5654308E-1,1.046814E-1,5.1174745E-2,0E0,2.322016E-2,0E0,2.9909742E-1,9.2474796E-2,6.841409E-2,2.273339E-1,1.4099528E-1,7.0632815E-2,0E0,0E0,0E0,0E0,0E0,0E0,0E0,0E0,0E0,0E0,0E0,0E0,0E0,0E0,0E0,0E0,0E0,0E0,0E0,0E0,0E0,0E0,0E0,0E0,0E0,0E0,0E0,0E0,0E0,0E0,0E0],"parents":[2147483647,0,0,1,1,2,2,3,3,4,4,5,5,6,6,7,7,11,11,12,12,13,13,14,14,18,18,19,19,20,20,21,21,22,22,23,23,24,24,25,25,27,27,29,29,30,30,32,32,33,33,34,34,35,35,36,36,37,37,39,39,40,40,41,41,42,42,44,44,46,46,47,47,48,48,50,50,52,52,53,53,54,54,55,55,56,56,57,57],"right_children":[2,4,6,8,10,12,14,16,-1,-1,-1,18,20,22,24,-1,-1,-1,26,28,30,32,34,36,38,40,-1,42,-1,44,46,-1,48,50,52,54,56,58,-1,60,62,64,66,-1,68,-1,70,72,74,-1,76,-1,78,80,82,84,86,88,-1,-1,-1,-1,-1,-1,-1,-1,-1,-1,-1,-1,-1,-1,-1,-1,-1,-1,-1,-1,-1,-1,-1,-1,-1,-1,-1,-1,-1,-1,-1],"split_conditions":[1E0,-1.3999504E-1,-2.9954523E-1,-1.4740456E-2,-8.6915475E-1,-1.2963619E0,6.2607026E-1,-1.6344403E0,3.8143266E-2,4.5693174E-2,6.252159E-2,1E0,-7.2675234E-1,1E0,1.5516857E0,1.3828265E-2,2.57304E-2,-7.893186E-2,1.0476869E0,5.8180064E-1,4.399022E-1,-1.4740456E-2,-2.8927553E-1,8.606763E-1,1E0,2.569926E-1,-5.6658413E-2,4.3744153E-1,-5.3511918E-2,-2.7287108E-1,4.4892463E-1,-2.0123607E-2,2.700643E-1,-1.4457891E0,-1.4163549E-1,6.9727147E-1,1E0,1.6940881E0,1.0781331E-2,1E0,-1.4387642E0,1E0,-1.0115571E0,-3.260164E-2,-1.4163549E-1,4.5231342E-2,1.1051025E0,5.6460734E-2,3.412655E-1,2.4109125E-2,-9.315097E-1,5.7452727E-2,-2.2834402E-1,1E0,1E0,1.0148782E0,1.4092834E0,1.0321028E0,1.6101202E-2,-5.4410707E-2,-2.8206512E-2,5.953045E-2,-2.8599167E-2,-3.841153E-2,-2.5917498E-2,3.5631817E-2,-2.1524843E-2,7.602533E-4,-2.9882992E-2,-2.6884375E-2,-8.640653E-3,-8.759117E-4,-1.3431559E-2,5.458069E-3,-3.9018933E-3,-2.6856423E-3,-1.0338761E-2,4.440133E-2,7.6971687E-3,-7.3647737E-3,9.976312E-3,6.733216E-3,1.219125E-2,3.7268374E-2,1.6017847E-2,-6.9102447E-4,2.8115893E-2,3.3441734E-2,7.959939E-3],"split_indices":[11,1,0,0,0,0,0,1,0,0,0,6,0,9,0,0,0,0,1,1,1,0,1,1,7,1,0,1,0,1,1,0,0,1,1,0,7,0,0,20,0,6,0,0,1,0,1,0,0,0,1,0,0,7,6,1,0,1,0,0,0,0,0,0,0,0,0,0,0,0,0,0,0,0,0,0,0,0,0,0,0,0,0,0,0,0,0,0,0],"split_type":[0,0,0,0,0,0,0,0,0,0,0,0,0,0,0,0,0,0,0,0,0,0,0,0,0,0,0,0,0,0,0,0,0,0,0,0,0,0,0,0,0,0,0,0,0,0,0,0,0,0,0,0,0,0,0,0,0,0,0,0,0,0,0,0,0,0,0,0,0,0,0,0,0,0,0,0,0,0,0,0,0,0,0,0,0,0,0,0,0],"sum_hessian":[6.62E2,1.33E2,5.29E2,5.7E1,7.6E1,2.06E2,3.23E2,3.3E1,2.4E1,2.2E1,5.4E1,5.9E1,1.47E2,1.38E2,1.85E2,6E0,2.7E1,3.3E1,2.6E1,8.2E1,6.5E1,1.04E2,3.4E1,1.52E2,3.3E1,1.8E1,8E0,6.9E1,1.3E1,4.3E1,2.2E1,2.6E1,7.8E1,2E1,1.4E1,1.13E2,3.9E1,2.5E1,8E0,1.4E1,4E0,6.5E1,4E0,2.3E1,2E1,1E0,2.1E1,3.5E1,4.3E1,1E0,1.9E1,1E0,1.3E1,1.1E1,1.02E2,2.7E1,1.2E1,1.4E1,1.1E1,8E0,6E0,1E0,3E0,3.7E1,2.8E1,2E0,2E0,5E0,1.5E1,1.1E1,1E1,9E0,2.6E1,6E0,3.7E1,7E0,1.2E1,2E0,1.1E1,7E0,4E0,5.1E1,5.1E1,8E0,1.9E1,1.1E1,1E0,1.2E1,2E0],"tree_param":{"num_deleted":"0","num_feature":"22","num_nodes":"89","size_leaf_vector":"1"}}]},"name":"gbtree"},"learner_model_param":{"base_score":"[9.109176E0]","boost_from_average":"1","num_class":"0","num_feature":"22","num_target":"1"},"objective":{"name":"reg:squarederror","reg_loss_param":{"scale_pos_weight":"1"}}},"version":[3,1,2]}